<?xml version="1.0"?>
<MethodSetup Method="BDT::BDTG">
  <GeneralInfo>
    <Info name="TMVA Release" value="4.1.2 [262402]"/>
    <Info name="ROOT Release" value="5.32/04 [335876]"/>
    <Info name="Creator" value="brianpollack"/>
    <Info name="Date" value="Sun Jul  6 15:23:46 2014"/>
    <Info name="Host" value="Darwin pb-d-128-141-108-211.cern.ch 11.4.2 Darwin Kernel Version 11.4.2: Thu Aug 23 16:25:48 PDT 2012; root:xnu-1699.32.7~1/RELEASE_X86_64 x86_64"/>
    <Info name="Dir" value="/Users/brianpollack/MVA_Scripts"/>
    <Info name="Training events" value="10641"/>
    <Info name="TrainingTime" value="1.24220459e+01"/>
    <Info name="AnalysisType" value="Classification"/>
  </GeneralInfo>
  <Options>
    <Option name="V" modified="Yes">False</Option>
    <Option name="VerbosityLevel" modified="No">Default</Option>
    <Option name="VarTransform" modified="No">None</Option>
    <Option name="H" modified="Yes">False</Option>
    <Option name="CreateMVAPdfs" modified="No">False</Option>
    <Option name="IgnoreNegWeightsInTraining" modified="No">False</Option>
    <Option name="NTrees" modified="Yes">1200</Option>
    <Option name="RenormByClass" modified="No">False</Option>
    <Option name="BoostType" modified="Yes">Grad</Option>
    <Option name="AdaBoostR2Loss" modified="No">quadratic</Option>
    <Option name="UseBaggedGrad" modified="Yes">True</Option>
    <Option name="GradBaggingFraction" modified="Yes">7.000000e-01</Option>
    <Option name="Shrinkage" modified="Yes">1.000000e-01</Option>
    <Option name="AdaBoostBeta" modified="No">1.000000e+00</Option>
    <Option name="UseRandomisedTrees" modified="No">False</Option>
    <Option name="UseNvars" modified="No">2</Option>
    <Option name="UsePoissonNvars" modified="No">True</Option>
    <Option name="UseNTrainEvents" modified="No">10641</Option>
    <Option name="UseWeightedTrees" modified="No">True</Option>
    <Option name="UseYesNoLeaf" modified="No">True</Option>
    <Option name="NodePurityLimit" modified="No">5.000000e-01</Option>
    <Option name="SeparationType" modified="No">giniindex</Option>
    <Option name="nEventsMin" modified="Yes">100</Option>
    <Option name="nCuts" modified="Yes">5000</Option>
    <Option name="UseFisherCuts" modified="No">False</Option>
    <Option name="MinLinCorrForFisher" modified="No">8.000000e-01</Option>
    <Option name="UseExclusiveVars" modified="No">False</Option>
    <Option name="PruneStrength" modified="No">0.000000e+00</Option>
    <Option name="PruneMethod" modified="No">nopruning</Option>
    <Option name="PruneBeforeBoost" modified="No">False</Option>
    <Option name="PruningValFraction" modified="No">5.000000e-01</Option>
    <Option name="NNodesMax" modified="Yes">4</Option>
    <Option name="MaxDepth" modified="No">3</Option>
    <Option name="DoBoostMonitor" modified="No">False</Option>
    <Option name="NegWeightTreatment" modified="Yes">ignorenegweights</Option>
  </Options>
  <Variables NVar="4">
    <Variable VarIndex="0" Expression="smallTheta" Label="smallTheta" Title="cos(#theta)" Unit="" Internal="smallTheta" Type="F" Min="-9.90260780e-01" Max="9.90705132e-01"/>
    <Variable VarIndex="1" Expression="l2Eta" Label="l2Eta" Title="#eta_{l2}" Unit="" Internal="l2Eta" Type="F" Min="-2.53735971e+00" Max="2.51902580e+00"/>
    <Variable VarIndex="2" Expression="threeBodyPtOM" Label="threeBodyPtOM" Title="pT_{ll#gamma}/m_{ll#gamma}" Unit="" Internal="threeBodyPtOM" Type="F" Min="9.28505731e-04" Max="3.50560617e+00"/>
    <Variable VarIndex="3" Expression="GEta" Label="GEta" Title="#eta_{#gamma}" Unit="" Internal="GEta" Type="F" Min="-2.51608276e+00" Max="2.52249050e+00"/>
  </Variables>
  <Spectators NSpec="1">
    <Spectator SpecIndex="0" Expression="threeBodyMass" Label="threeBodyMass" Title="m_{ll#gamma}" Unit="GeV" Internal="threeBodyMass" Type="F" Min="1.15002991e+02" Max="1.89979965e+02"/>
  </Spectators>
  <Classes NClass="2">
    <Class Name="Signal" Index="0"/>
    <Class Name="Background" Index="1"/>
  </Classes>
  <Transformations NTransformations="0"/>
  <MVAPdfs/>
  <Weights NTrees="1200" AnalysisType="1">
    <BinaryTree type="DecisionTree" boostWeight="1.0000000000000000e+00" itree="0">
      <Node pos="s" depth="0" NCoef="0" IVar="2" Cut="2.0558682084083557e-01" cType="0" res="-8.8534362614154816e-02" rms="4.9209925532341003e-01" purity="4.1146564483642578e-01" nType="0">
        <Node pos="l" depth="1" NCoef="0" IVar="-1" Cut="0.0000000000000000e+00" cType="1" res="4.0689501911401749e-03" rms="4.9731749296188354e-01" purity="5.5172353982925415e-01" nType="-99"/>
        <Node pos="r" depth="1" NCoef="0" IVar="2" Cut="5.8835018426179886e-02" cType="0" res="-1.7154575884342194e-01" rms="4.6965098381042480e-01" purity="3.2845422625541687e-01" nType="0">
          <Node pos="l" depth="2" NCoef="0" IVar="-1" Cut="0.0000000000000000e+00" cType="1" res="-7.5786076486110687e-03" rms="4.8394706845283508e-01" purity="3.7432086467742920e-01" nType="-99"/>
          <Node pos="r" depth="2" NCoef="0" IVar="-1" Cut="0.0000000000000000e+00" cType="1" res="-2.2319722920656204e-02" rms="4.0505865216255188e-01" purity="2.0686610043048859e-01" nType="-99"/>
        </Node>
      </Node>
    </BinaryTree>
    <BinaryTree type="DecisionTree" boostWeight="1.0000000000000000e+00" itree="1">
      <Node pos="s" depth="0" NCoef="0" IVar="2" Cut="2.3639574646949768e-01" cType="0" res="-8.9006178081035614e-02" rms="4.9039044976234436e-01" purity="4.0811717510223389e-01" nType="0">
        <Node pos="l" depth="1" NCoef="0" IVar="-1" Cut="0.0000000000000000e+00" cType="1" res="5.2923886105418205e-03" rms="4.9527052044868469e-01" purity="5.6860840320587158e-01" nType="-99"/>
        <Node pos="r" depth="1" NCoef="0" IVar="2" Cut="5.3254146128892899e-02" cType="0" res="-1.6119037568569183e-01" rms="4.7096717357635498e-01" purity="3.3365440368652344e-01" nType="0">
          <Node pos="l" depth="2" NCoef="0" IVar="-1" Cut="0.0000000000000000e+00" cType="1" res="-6.9699031300842762e-03" rms="4.8285582661628723e-01" purity="3.7060809135437012e-01" nType="-99"/>
          <Node pos="r" depth="2" NCoef="0" IVar="-1" Cut="0.0000000000000000e+00" cType="1" res="-2.3893563076853752e-02" rms="3.9717701077461243e-01" purity="1.9627249240875244e-01" nType="-99"/>
        </Node>
      </Node>
    </BinaryTree>
    <BinaryTree type="DecisionTree" boostWeight="1.0000000000000000e+00" itree="2">
      <Node pos="s" depth="0" NCoef="0" IVar="2" Cut="2.3482371866703033e-01" cType="0" res="-9.1044239699840546e-02" rms="4.8840761184692383e-01" purity="4.0327531099319458e-01" nType="0">
        <Node pos="l" depth="1" NCoef="0" IVar="-1" Cut="0.0000000000000000e+00" cType="1" res="4.7234077937901020e-03" rms="4.9566715955734253e-01" purity="5.6571871042251587e-01" nType="-99"/>
        <Node pos="r" depth="1" NCoef="0" IVar="2" Cut="8.0658279359340668e-02" cType="0" res="-1.6334758698940277e-01" rms="4.6788895130157471e-01" purity="3.2606315612792969e-01" nType="0">
          <Node pos="l" depth="2" NCoef="0" IVar="-1" Cut="0.0000000000000000e+00" cType="1" res="-6.0026152059435844e-03" rms="4.8448002338409424e-01" purity="3.7654122710227966e-01" nType="-99"/>
          <Node pos="r" depth="2" NCoef="0" IVar="-1" Cut="0.0000000000000000e+00" cType="1" res="-1.6527688130736351e-02" rms="4.3025946617126465e-01" purity="2.4626851081848145e-01" nType="-99"/>
        </Node>
      </Node>
    </BinaryTree>
    <BinaryTree type="DecisionTree" boostWeight="1.0000000000000000e+00" itree="3">
      <Node pos="s" depth="0" NCoef="0" IVar="2" Cut="2.4971085786819458e-01" cType="0" res="-8.3608649671077728e-02" rms="4.8823085427284241e-01" purity="4.0784779191017151e-01" nType="0">
        <Node pos="l" depth="1" NCoef="0" IVar="-1" Cut="0.0000000000000000e+00" cType="1" res="6.8597956560552120e-03" rms="4.9252390861511230e-01" purity="5.8614057302474976e-01" nType="-99"/>
        <Node pos="r" depth="1" NCoef="0" IVar="2" Cut="7.7773548662662506e-02" cType="0" res="-1.4996774494647980e-01" rms="4.7058635950088501e-01" purity="3.3513227105140686e-01" nType="0">
          <Node pos="l" depth="2" NCoef="0" IVar="-1" Cut="0.0000000000000000e+00" cType="1" res="-5.3167254664003849e-03" rms="4.8730099201202393e-01" purity="3.8860172033309937e-01" nType="-99"/>
          <Node pos="r" depth="2" NCoef="0" IVar="-1" Cut="0.0000000000000000e+00" cType="1" res="-1.7200605943799019e-02" rms="4.2703533172607422e-01" purity="2.4100087583065033e-01" nType="-99"/>
        </Node>
      </Node>
    </BinaryTree>
    <BinaryTree type="DecisionTree" boostWeight="1.0000000000000000e+00" itree="4">
      <Node pos="s" depth="0" NCoef="0" IVar="2" Cut="1.8963941931724548e-01" cType="0" res="-7.5371302664279938e-02" rms="4.8842060565948486e-01" purity="4.1375175118446350e-01" nType="0">
        <Node pos="l" depth="1" NCoef="0" IVar="-1" Cut="0.0000000000000000e+00" cType="1" res="3.1608743593096733e-03" rms="4.9716669321060181e-01" purity="5.4595625400543213e-01" nType="-99"/>
        <Node pos="r" depth="1" NCoef="0" IVar="2" Cut="5.5525138974189758e-02" cType="0" res="-1.5142714977264404e-01" rms="4.6724331378936768e-01" purity="3.2650509476661682e-01" nType="0">
          <Node pos="l" depth="2" NCoef="0" IVar="-1" Cut="0.0000000000000000e+00" cType="1" res="-6.2617114745080471e-03" rms="4.8268836736679077e-01" purity="3.7041300535202026e-01" nType="-99"/>
          <Node pos="r" depth="2" NCoef="0" IVar="-1" Cut="0.0000000000000000e+00" cType="1" res="-1.9965058192610741e-02" rms="4.0473711490631104e-01" purity="2.0650702714920044e-01" nType="-99"/>
        </Node>
      </Node>
    </BinaryTree>
    <BinaryTree type="DecisionTree" boostWeight="1.0000000000000000e+00" itree="5">
      <Node pos="s" depth="0" NCoef="0" IVar="2" Cut="3.4288197755813599e-01" cType="0" res="-7.8457579016685486e-02" rms="4.8670357465744019e-01" purity="4.0888050198554993e-01" nType="0">
        <Node pos="l" depth="1" NCoef="0" IVar="-1" Cut="0.0000000000000000e+00" cType="1" res="1.1250342242419720e-02" rms="4.8432949185371399e-01" purity="6.2419718503952026e-01" nType="-99"/>
        <Node pos="r" depth="1" NCoef="0" IVar="2" Cut="5.3229864686727524e-02" cType="0" res="-1.2346043437719345e-01" rms="4.7625797986984253e-01" purity="3.5804292559623718e-01" nType="0">
          <Node pos="l" depth="2" NCoef="0" IVar="-1" Cut="0.0000000000000000e+00" cType="1" res="-5.1250518299639225e-03" rms="4.8807364702224731e-01" purity="3.9631050825119019e-01" nType="-99"/>
          <Node pos="r" depth="2" NCoef="0" IVar="-1" Cut="0.0000000000000000e+00" cType="1" res="-2.4569436907768250e-02" rms="3.8731682300567627e-01" purity="1.8379488587379456e-01" nType="-99"/>
        </Node>
      </Node>
    </BinaryTree>
    <BinaryTree type="DecisionTree" boostWeight="1.0000000000000000e+00" itree="6">
      <Node pos="s" depth="0" NCoef="0" IVar="2" Cut="2.4765992164611816e-01" cType="0" res="-8.2866251468658447e-02" rms="4.8405620455741882e-01" purity="4.0140148997306824e-01" nType="0">
        <Node pos="l" depth="1" NCoef="0" IVar="-1" Cut="0.0000000000000000e+00" cType="1" res="6.0379994101822376e-03" rms="4.9169784784317017e-01" purity="5.8829557895660400e-01" nType="-99"/>
        <Node pos="r" depth="1" NCoef="0" IVar="3" Cut="-1.7936958074569702e+00" cType="0" res="-1.4615797996520996e-01" rms="4.6624097228050232e-01" purity="3.2585361599922180e-01" nType="0">
          <Node pos="l" depth="2" NCoef="0" IVar="-1" Cut="0.0000000000000000e+00" cType="1" res="-7.6476996764540672e-03" rms="4.7247016429901123e-01" purity="3.4404236078262329e-01" nType="-99"/>
          <Node pos="r" depth="2" NCoef="0" IVar="-1" Cut="0.0000000000000000e+00" cType="1" res="-1.4745744876563549e-02" rms="3.3179739117622375e-01" purity="1.2716840207576752e-01" nType="-99"/>
        </Node>
      </Node>
    </BinaryTree>
    <BinaryTree type="DecisionTree" boostWeight="1.0000000000000000e+00" itree="7">
      <Node pos="s" depth="0" NCoef="0" IVar="2" Cut="2.3639574646949768e-01" cType="0" res="-7.7435702085494995e-02" rms="4.8437294363975525e-01" purity="4.0552350878715515e-01" nType="0">
        <Node pos="l" depth="1" NCoef="0" IVar="-1" Cut="0.0000000000000000e+00" cType="1" res="5.0231656059622765e-03" rms="4.9370425939559937e-01" purity="5.7645195722579956e-01" nType="-99"/>
        <Node pos="r" depth="1" NCoef="0" IVar="2" Cut="3.8855183869600296e-02" cType="0" res="-1.4262604713439941e-01" rms="4.6591803431510925e-01" purity="3.2443141937255859e-01" nType="0">
          <Node pos="l" depth="2" NCoef="0" IVar="-1" Cut="0.0000000000000000e+00" cType="1" res="-7.4378279969096184e-03" rms="4.7540563344955444e-01" purity="3.4780079126358032e-01" nType="-99"/>
          <Node pos="r" depth="2" NCoef="0" IVar="-1" Cut="0.0000000000000000e+00" cType="1" res="-2.7763305231928825e-02" rms="3.7660312652587891e-01" purity="1.7115375399589539e-01" nType="-99"/>
        </Node>
      </Node>
    </BinaryTree>
    <BinaryTree type="DecisionTree" boostWeight="1.0000000000000000e+00" itree="8">
      <Node pos="s" depth="0" NCoef="0" IVar="2" Cut="2.0205678045749664e-01" cType="0" res="-7.0511735975742340e-02" rms="4.8405432701110840e-01" purity="4.0941560268402100e-01" nType="0">
        <Node pos="l" depth="1" NCoef="0" IVar="-1" Cut="0.0000000000000000e+00" cType="1" res="3.6898499820381403e-03" rms="4.9532589316368103e-01" purity="5.5928343534469604e-01" nType="-99"/>
        <Node pos="r" depth="1" NCoef="0" IVar="3" Cut="1.4333688020706177e+00" cType="1" res="-1.3959300518035889e-01" rms="4.6362832188606262e-01" purity="3.2001465559005737e-01" nType="0">
          <Node pos="l" depth="2" NCoef="0" IVar="-1" Cut="0.0000000000000000e+00" cType="1" res="-7.8920731320977211e-03" rms="4.7124645113945007e-01" purity="3.4191402792930603e-01" nType="-99"/>
          <Node pos="r" depth="2" NCoef="0" IVar="-1" Cut="0.0000000000000000e+00" cType="1" res="-1.5652215108275414e-02" rms="3.7534710764884949e-01" purity="1.7095574736595154e-01" nType="-99"/>
        </Node>
      </Node>
    </BinaryTree>
    <BinaryTree type="DecisionTree" boostWeight="1.0000000000000000e+00" itree="9">
      <Node pos="s" depth="0" NCoef="0" IVar="2" Cut="2.5606933236122131e-01" cType="0" res="-7.6134219765663147e-02" rms="4.8225653171539307e-01" purity="4.0156644582748413e-01" nType="0">
        <Node pos="l" depth="1" NCoef="0" IVar="-1" Cut="0.0000000000000000e+00" cType="1" res="5.1627182401716709e-03" rms="4.9261206388473511e-01" purity="5.8364999294281006e-01" nType="-99"/>
        <Node pos="r" depth="1" NCoef="0" IVar="3" Cut="-1.8120741844177246e+00" cType="0" res="-1.2922559678554535e-01" rms="4.6749866008758545e-01" purity="3.3125272393226624e-01" nType="0">
          <Node pos="l" depth="2" NCoef="0" IVar="-1" Cut="0.0000000000000000e+00" cType="1" res="-6.8066655658185482e-03" rms="4.7251230478286743e-01" purity="3.4625694155693054e-01" nType="-99"/>
          <Node pos="r" depth="2" NCoef="0" IVar="-1" Cut="0.0000000000000000e+00" cType="1" res="-1.3404529541730881e-02" rms="3.6069309711456299e-01" purity="1.5472978353500366e-01" nType="-99"/>
        </Node>
      </Node>
    </BinaryTree>
    <BinaryTree type="DecisionTree" boostWeight="1.0000000000000000e+00" itree="10">
      <Node pos="s" depth="0" NCoef="0" IVar="2" Cut="2.3666578531265259e-01" cType="0" res="-7.0673227310180664e-02" rms="4.8143431544303894e-01" purity="4.0498372912406921e-01" nType="0">
        <Node pos="l" depth="1" NCoef="0" IVar="-1" Cut="0.0000000000000000e+00" cType="1" res="5.6569054722785950e-03" rms="4.9142539501190186e-01" purity="5.8820956945419312e-01" nType="-99"/>
        <Node pos="r" depth="1" NCoef="0" IVar="2" Cut="5.8866258710622787e-02" cType="0" res="-1.3193753361701965e-01" rms="4.6402221918106079e-01" purity="3.2241600751876831e-01" nType="0">
          <Node pos="l" depth="2" NCoef="0" IVar="-1" Cut="0.0000000000000000e+00" cType="1" res="-6.0036648064851761e-03" rms="4.8104417324066162e-01" purity="3.6566856503486633e-01" nType="-99"/>
          <Node pos="r" depth="2" NCoef="0" IVar="-1" Cut="0.0000000000000000e+00" cType="1" res="-1.8317826092243195e-02" rms="3.9581146836280823e-01" purity="1.9563178718090057e-01" nType="-99"/>
        </Node>
      </Node>
    </BinaryTree>
    <BinaryTree type="DecisionTree" boostWeight="1.0000000000000000e+00" itree="11">
      <Node pos="s" depth="0" NCoef="0" IVar="2" Cut="2.3639574646949768e-01" cType="0" res="-7.0751480758190155e-02" rms="4.8121446371078491e-01" purity="4.0306645631790161e-01" nType="0">
        <Node pos="l" depth="1" NCoef="0" IVar="-1" Cut="0.0000000000000000e+00" cType="1" res="4.0465295314788818e-03" rms="4.9433681368827820e-01" purity="5.7200294733047485e-01" nType="-99"/>
        <Node pos="r" depth="1" NCoef="0" IVar="3" Cut="-1.6062984466552734e+00" cType="0" res="-1.2427038699388504e-01" rms="4.6538665890693665e-01" purity="3.2595041394233704e-01" nType="0">
          <Node pos="l" depth="2" NCoef="0" IVar="-1" Cut="0.0000000000000000e+00" cType="1" res="-6.5184379927814007e-03" rms="4.7197195887565613e-01" purity="3.4522542357444763e-01" nType="-99"/>
          <Node pos="r" depth="2" NCoef="0" IVar="-1" Cut="0.0000000000000000e+00" cType="1" res="-1.2589799240231514e-02" rms="3.8102015852928162e-01" purity="1.7813333868980408e-01" nType="-99"/>
        </Node>
      </Node>
    </BinaryTree>
    <BinaryTree type="DecisionTree" boostWeight="1.0000000000000000e+00" itree="12">
      <Node pos="s" depth="0" NCoef="0" IVar="2" Cut="2.5888589024543762e-01" cType="0" res="-7.0758573710918427e-02" rms="4.8015180230140686e-01" purity="4.0096345543861389e-01" nType="0">
        <Node pos="l" depth="1" NCoef="0" IVar="-1" Cut="0.0000000000000000e+00" cType="1" res="5.6231864728033543e-03" rms="4.9187871813774109e-01" purity="5.8907473087310791e-01" nType="-99"/>
        <Node pos="r" depth="1" NCoef="0" IVar="2" Cut="3.8836997002363205e-02" cType="0" res="-1.1925097554922104e-01" rms="4.6652129292488098e-01" purity="3.3066123723983765e-01" nType="0">
          <Node pos="l" depth="2" NCoef="0" IVar="-1" Cut="0.0000000000000000e+00" cType="1" res="-6.0974033549427986e-03" rms="4.7740936279296875e-01" purity="3.5698422789573669e-01" nType="-99"/>
          <Node pos="r" depth="2" NCoef="0" IVar="-1" Cut="0.0000000000000000e+00" cType="1" res="-1.9849974662065506e-02" rms="3.5890620946884155e-01" purity="1.5211653709411621e-01" nType="-99"/>
        </Node>
      </Node>
    </BinaryTree>
    <BinaryTree type="DecisionTree" boostWeight="1.0000000000000000e+00" itree="13">
      <Node pos="s" depth="0" NCoef="0" IVar="2" Cut="2.0205678045749664e-01" cType="0" res="-7.2054073214530945e-02" rms="4.7881248593330383e-01" purity="3.9740774035453796e-01" nType="0">
        <Node pos="l" depth="1" NCoef="0" IVar="-1" Cut="0.0000000000000000e+00" cType="1" res="2.2123814560472965e-03" rms="4.9596974253654480e-01" purity="5.4853880405426025e-01" nType="-99"/>
        <Node pos="r" depth="1" NCoef="0" IVar="2" Cut="4.5482091605663300e-02" cType="0" res="-1.3102793693542480e-01" rms="4.5827728509902954e-01" purity="3.0817016959190369e-01" nType="0">
          <Node pos="l" depth="2" NCoef="0" IVar="-1" Cut="0.0000000000000000e+00" cType="1" res="-6.4543997868895531e-03" rms="4.7252869606018066e-01" purity="3.3948299288749695e-01" nType="-99"/>
          <Node pos="r" depth="2" NCoef="0" IVar="-1" Cut="0.0000000000000000e+00" cType="1" res="-1.7344541847705841e-02" rms="3.8113057613372803e-01" purity="1.7710326611995697e-01" nType="-99"/>
        </Node>
      </Node>
    </BinaryTree>
    <BinaryTree type="DecisionTree" boostWeight="1.0000000000000000e+00" itree="14">
      <Node pos="s" depth="0" NCoef="0" IVar="2" Cut="5.9430474042892456e-01" cType="0" res="-6.2359813600778580e-02" rms="4.8056763410568237e-01" purity="4.0545809268951416e-01" nType="0">
        <Node pos="l" depth="1" NCoef="0" IVar="-1" Cut="0.0000000000000000e+00" cType="1" res="2.6185953989624977e-02" rms="4.3051439523696899e-01" purity="7.5427812337875366e-01" nType="-99"/>
        <Node pos="r" depth="1" NCoef="0" IVar="2" Cut="5.3244989365339279e-02" cType="0" res="-8.1961371004581451e-02" rms="4.7776123881340027e-01" purity="3.8106468319892883e-01" nType="0">
          <Node pos="l" depth="2" NCoef="0" IVar="-1" Cut="0.0000000000000000e+00" cType="1" res="-3.6744256503880024e-03" rms="4.8900660872459412e-01" purity="4.1679322719573975e-01" nType="-99"/>
          <Node pos="r" depth="2" NCoef="0" IVar="-1" Cut="0.0000000000000000e+00" cType="1" res="-1.6031730920076370e-02" rms="3.9469721913337708e-01" purity="1.9393928349018097e-01" nType="-99"/>
        </Node>
      </Node>
    </BinaryTree>
    <BinaryTree type="DecisionTree" boostWeight="1.0000000000000000e+00" itree="15">
      <Node pos="s" depth="0" NCoef="0" IVar="2" Cut="3.4318277239799500e-01" cType="0" res="-6.3154406845569611e-02" rms="4.7866070270538330e-01" purity="4.0276700258255005e-01" nType="0">
        <Node pos="l" depth="1" NCoef="0" IVar="-1" Cut="0.0000000000000000e+00" cType="1" res="9.2934994027018547e-03" rms="4.8332044482231140e-01" purity="6.2412273883819580e-01" nType="-99"/>
        <Node pos="r" depth="1" NCoef="0" IVar="3" Cut="-1.6062984466552734e+00" cType="0" res="-9.7524389624595642e-02" rms="4.7098070383071899e-01" purity="3.5115984082221985e-01" nType="0">
          <Node pos="l" depth="2" NCoef="0" IVar="-1" Cut="0.0000000000000000e+00" cType="1" res="-4.9434117972850800e-03" rms="4.7674337029457092e-01" purity="3.7094050645828247e-01" nType="-99"/>
          <Node pos="r" depth="2" NCoef="0" IVar="-1" Cut="0.0000000000000000e+00" cType="1" res="-1.1759201064705849e-02" rms="3.9347982406616211e-01" purity="1.9790813326835632e-01" nType="-99"/>
        </Node>
      </Node>
    </BinaryTree>
    <BinaryTree type="DecisionTree" boostWeight="1.0000000000000000e+00" itree="16">
      <Node pos="s" depth="0" NCoef="0" IVar="2" Cut="4.0528744459152222e-01" cType="0" res="-6.0747116804122925e-02" rms="4.7957524657249451e-01" purity="4.0477666258811951e-01" nType="0">
        <Node pos="l" depth="1" NCoef="0" IVar="-1" Cut="0.0000000000000000e+00" cType="1" res="1.0187598876655102e-02" rms="4.7968038916587830e-01" purity="6.3764089345932007e-01" nType="-99"/>
        <Node pos="r" depth="1" NCoef="0" IVar="3" Cut="1.4333688020706177e+00" cType="1" res="-8.6444847285747528e-02" rms="4.7476735711097717e-01" purity="3.6545747518539429e-01" nType="0">
          <Node pos="l" depth="2" NCoef="0" IVar="-1" Cut="0.0000000000000000e+00" cType="1" res="-4.3261209502816200e-03" rms="4.7924673557281494e-01" purity="3.8433706760406494e-01" nType="-99"/>
          <Node pos="r" depth="2" NCoef="0" IVar="-1" Cut="0.0000000000000000e+00" cType="1" res="-1.0635051876306534e-02" rms="4.1745355725288391e-01" purity="2.2934333980083466e-01" nType="-99"/>
        </Node>
      </Node>
    </BinaryTree>
    <BinaryTree type="DecisionTree" boostWeight="1.0000000000000000e+00" itree="17">
      <Node pos="s" depth="0" NCoef="0" IVar="2" Cut="1.9925360381603241e-01" cType="0" res="-5.2050732076168060e-02" rms="4.7968667745590210e-01" purity="4.1237676143646240e-01" nType="0">
        <Node pos="l" depth="1" NCoef="0" IVar="-1" Cut="0.0000000000000000e+00" cType="1" res="2.5219777598977089e-03" rms="4.9312210083007812e-01" purity="5.5508208274841309e-01" nType="-99"/>
        <Node pos="r" depth="1" NCoef="0" IVar="3" Cut="-1.6913621425628662e+00" cType="0" res="-1.0527431964874268e-01" rms="4.6314662694931030e-01" purity="3.2173037528991699e-01" nType="0">
          <Node pos="l" depth="2" NCoef="0" IVar="-1" Cut="0.0000000000000000e+00" cType="1" res="-5.8124102652072906e-03" rms="4.6947944164276123e-01" purity="3.3942344784736633e-01" nType="-99"/>
          <Node pos="r" depth="2" NCoef="0" IVar="-1" Cut="0.0000000000000000e+00" cType="1" res="-1.2755089439451694e-02" rms="3.6238044500350952e-01" purity="1.5579479932785034e-01" nType="-99"/>
        </Node>
      </Node>
    </BinaryTree>
    <BinaryTree type="DecisionTree" boostWeight="1.0000000000000000e+00" itree="18">
      <Node pos="s" depth="0" NCoef="0" IVar="2" Cut="9.8339065909385681e-02" cType="0" res="-4.2565662413835526e-02" rms="4.8120987415313721e-01" purity="4.1971057653427124e-01" nType="0">
        <Node pos="l" depth="1" NCoef="0" IVar="-1" Cut="0.0000000000000000e+00" cType="1" res="8.0212113971356302e-05" rms="4.9316564202308655e-01" purity="4.9033102393150330e-01" nType="-99"/>
        <Node pos="r" depth="1" NCoef="0" IVar="2" Cut="3.2385572791099548e-02" cType="0" res="-1.3443446159362793e-01" rms="4.4122773408889771e-01" purity="2.7170956134796143e-01" nType="0">
          <Node pos="l" depth="2" NCoef="0" IVar="-1" Cut="0.0000000000000000e+00" cType="1" res="-8.7388977408409119e-03" rms="4.5871099829673767e-01" purity="3.0440384149551392e-01" nType="-99"/>
          <Node pos="r" depth="2" NCoef="0" IVar="-1" Cut="0.0000000000000000e+00" cType="1" res="-2.2747769951820374e-02" rms="3.6205753684043884e-01" purity="1.5544958412647247e-01" nType="-99"/>
        </Node>
      </Node>
    </BinaryTree>
    <BinaryTree type="DecisionTree" boostWeight="1.0000000000000000e+00" itree="19">
      <Node pos="s" depth="0" NCoef="0" IVar="2" Cut="3.4313315153121948e-01" cType="0" res="-5.5104587227106094e-02" rms="4.7734740376472473e-01" purity="4.0406510233879089e-01" nType="0">
        <Node pos="l" depth="1" NCoef="0" IVar="-1" Cut="0.0000000000000000e+00" cType="1" res="9.2368461191654205e-03" rms="4.8201987147331238e-01" purity="6.2801271677017212e-01" nType="-99"/>
        <Node pos="r" depth="1" NCoef="0" IVar="3" Cut="1.4257912635803223e+00" cType="1" res="-8.4543451666831970e-02" rms="4.7122856974601746e-01" purity="3.5499668121337891e-01" nType="0">
          <Node pos="l" depth="2" NCoef="0" IVar="-1" Cut="0.0000000000000000e+00" cType="1" res="-4.0175258181989193e-03" rms="4.7632345557212830e-01" purity="3.7587583065032959e-01" nType="-99"/>
          <Node pos="r" depth="2" NCoef="0" IVar="-1" Cut="0.0000000000000000e+00" cType="1" res="-1.1591603048145771e-02" rms="4.1076025366783142e-01" purity="2.1587654948234558e-01" nType="-99"/>
        </Node>
      </Node>
    </BinaryTree>
    <BinaryTree type="DecisionTree" boostWeight="1.0000000000000000e+00" itree="20">
      <Node pos="s" depth="0" NCoef="0" IVar="2" Cut="2.0205678045749664e-01" cType="0" res="-5.1067024469375610e-02" rms="4.7728487849235535e-01" purity="4.0876653790473938e-01" nType="0">
        <Node pos="l" depth="1" NCoef="0" IVar="-1" Cut="0.0000000000000000e+00" cType="1" res="3.1817113049328327e-03" rms="4.9204796552658081e-01" purity="5.6425052881240845e-01" nType="-99"/>
        <Node pos="r" depth="1" NCoef="0" IVar="3" Cut="1.4333688020706177e+00" cType="1" res="-1.0316164791584015e-01" rms="4.6044212579727173e-01" purity="3.1615328788757324e-01" nType="0">
          <Node pos="l" depth="2" NCoef="0" IVar="-1" Cut="0.0000000000000000e+00" cType="1" res="-5.1079187542200089e-03" rms="4.6787086129188538e-01" purity="3.3674785494804382e-01" nType="-99"/>
          <Node pos="r" depth="2" NCoef="0" IVar="-1" Cut="0.0000000000000000e+00" cType="1" res="-1.3361567631363869e-02" rms="3.8351026177406311e-01" purity="1.7968893051147461e-01" nType="-99"/>
        </Node>
      </Node>
    </BinaryTree>
    <BinaryTree type="DecisionTree" boostWeight="1.0000000000000000e+00" itree="21">
      <Node pos="s" depth="0" NCoef="0" IVar="2" Cut="2.0159997045993805e-01" cType="0" res="-4.9479685723781586e-02" rms="4.7773557901382446e-01" purity="4.0823832154273987e-01" nType="0">
        <Node pos="l" depth="1" NCoef="0" IVar="-1" Cut="0.0000000000000000e+00" cType="1" res="2.2660112008452415e-03" rms="4.9409335851669312e-01" purity="5.5509626865386963e-01" nType="-99"/>
        <Node pos="r" depth="1" NCoef="0" IVar="3" Cut="1.4333688020706177e+00" cType="1" res="-9.4308875501155853e-02" rms="4.6191892027854919e-01" purity="3.2062420248985291e-01" nType="0">
          <Node pos="l" depth="2" NCoef="0" IVar="-1" Cut="0.0000000000000000e+00" cType="1" res="-5.1145865581929684e-03" rms="4.6963798999786377e-01" purity="3.4233954548835754e-01" nType="-99"/>
          <Node pos="r" depth="2" NCoef="0" IVar="-1" Cut="0.0000000000000000e+00" cType="1" res="-1.1765527538955212e-02" rms="3.8743397593498230e-01" purity="1.8467497825622559e-01" nType="-99"/>
        </Node>
      </Node>
    </BinaryTree>
    <BinaryTree type="DecisionTree" boostWeight="1.0000000000000000e+00" itree="22">
      <Node pos="s" depth="0" NCoef="0" IVar="2" Cut="5.9450221061706543e-01" cType="0" res="-4.3610461056232452e-02" rms="4.7789105772972107e-01" purity="4.1286873817443848e-01" nType="0">
        <Node pos="l" depth="1" NCoef="0" IVar="-1" Cut="0.0000000000000000e+00" cType="1" res="2.3023646324872971e-02" rms="4.3842896819114685e-01" purity="7.4037474393844604e-01" nType="-99"/>
        <Node pos="r" depth="1" NCoef="0" IVar="3" Cut="1.4182560443878174e+00" cType="1" res="-5.9956833720207214e-02" rms="4.7676339745521545e-01" purity="3.8814315199851990e-01" nType="0">
          <Node pos="l" depth="2" NCoef="0" IVar="-1" Cut="0.0000000000000000e+00" cType="1" res="-2.8277218807488680e-03" rms="4.8100993037223816e-01" purity="4.0885260701179504e-01" nType="-99"/>
          <Node pos="r" depth="2" NCoef="0" IVar="-1" Cut="0.0000000000000000e+00" cType="1" res="-1.0043793357908726e-02" rms="4.2519003152847290e-01" purity="2.4662087857723236e-01" nType="-99"/>
        </Node>
      </Node>
    </BinaryTree>
    <BinaryTree type="DecisionTree" boostWeight="1.0000000000000000e+00" itree="23">
      <Node pos="s" depth="0" NCoef="0" IVar="2" Cut="5.4619401693344116e-01" cType="0" res="-5.0440803170204163e-02" rms="4.7654542326927185e-01" purity="4.0500566363334656e-01" nType="0">
        <Node pos="l" depth="1" NCoef="0" IVar="-1" Cut="0.0000000000000000e+00" cType="1" res="1.8189437687397003e-02" rms="4.4613349437713623e-01" purity="7.2462141513824463e-01" nType="-99"/>
        <Node pos="r" depth="1" NCoef="0" IVar="3" Cut="1.5920026302337646e+00" cType="1" res="-6.7098021507263184e-02" rms="4.7519677877426147e-01" purity="3.7844103574752808e-01" nType="0">
          <Node pos="l" depth="2" NCoef="0" IVar="-1" Cut="0.0000000000000000e+00" cType="1" res="-3.4246782306581736e-03" rms="4.7964316606521606e-01" purity="3.9822676777839661e-01" nType="-99"/>
          <Node pos="r" depth="2" NCoef="0" IVar="-1" Cut="0.0000000000000000e+00" cType="1" res="-8.6486348882317543e-03" rms="4.2201906442642212e-01" purity="2.3828719556331635e-01" nType="-99"/>
        </Node>
      </Node>
    </BinaryTree>
    <BinaryTree type="DecisionTree" boostWeight="1.0000000000000000e+00" itree="24">
      <Node pos="s" depth="0" NCoef="0" IVar="2" Cut="9.6991293132305145e-02" cType="0" res="-4.8655819147825241e-02" rms="4.7633481025695801e-01" purity="4.0591746568679810e-01" nType="0">
        <Node pos="l" depth="1" NCoef="0" IVar="-1" Cut="0.0000000000000000e+00" cType="1" res="-6.2631483888253570e-04" rms="4.9125391244888306e-01" purity="4.7658774256706238e-01" nType="-99"/>
        <Node pos="r" depth="1" NCoef="0" IVar="3" Cut="-1.7886582612991333e+00" cType="0" res="-1.3274765014648438e-01" rms="4.3093571066856384e-01" purity="2.5511482357978821e-01" nType="0">
          <Node pos="l" depth="2" NCoef="0" IVar="-1" Cut="0.0000000000000000e+00" cType="1" res="-9.7300345078110695e-03" rms="4.3804389238357544e-01" purity="2.6869803667068481e-01" nType="-99"/>
          <Node pos="r" depth="2" NCoef="0" IVar="-1" Cut="0.0000000000000000e+00" cType="1" res="-1.5277328900992870e-02" rms="2.9897814989089966e-01" purity="9.7624704241752625e-02" nType="-99"/>
        </Node>
      </Node>
    </BinaryTree>
    <BinaryTree type="DecisionTree" boostWeight="1.0000000000000000e+00" itree="25">
      <Node pos="s" depth="0" NCoef="0" IVar="2" Cut="2.3499415814876556e-01" cType="0" res="-4.7537770122289658e-02" rms="4.7498509287834167e-01" purity="4.0440616011619568e-01" nType="0">
        <Node pos="l" depth="1" NCoef="0" IVar="-1" Cut="0.0000000000000000e+00" cType="1" res="3.1809774227440357e-03" rms="4.9052241444587708e-01" purity="5.7653421163558960e-01" nType="-99"/>
        <Node pos="r" depth="1" NCoef="0" IVar="3" Cut="-1.7947033643722534e+00" cType="0" res="-8.5948050022125244e-02" rms="4.6261185407638550e-01" purity="3.2484629750251770e-01" nType="0">
          <Node pos="l" depth="2" NCoef="0" IVar="-1" Cut="0.0000000000000000e+00" cType="1" res="-4.5723225921392441e-03" rms="4.6758839488029480e-01" purity="3.3861956000328064e-01" nType="-99"/>
          <Node pos="r" depth="2" NCoef="0" IVar="-1" Cut="0.0000000000000000e+00" cType="1" res="-1.1353434994816780e-02" rms="3.7346103787422180e-01" purity="1.6933737695217133e-01" nType="-99"/>
        </Node>
      </Node>
    </BinaryTree>
    <BinaryTree type="DecisionTree" boostWeight="1.0000000000000000e+00" itree="26">
      <Node pos="s" depth="0" NCoef="0" IVar="3" Cut="1.4401067495346069e+00" cType="1" res="-5.1930982619524002e-02" rms="4.7419813275337219e-01" purity="3.9875730872154236e-01" nType="0">
        <Node pos="l" depth="1" NCoef="0" IVar="-1" Cut="0.0000000000000000e+00" cType="1" res="-2.1498764399439096e-03" rms="4.7869208455085754e-01" purity="4.2193365097045898e-01" nType="-99"/>
        <Node pos="r" depth="1" NCoef="0" IVar="2" Cut="4.0321701765060425e-01" cType="0" res="-1.9232738018035889e-01" rms="4.1566804051399231e-01" purity="2.3902793228626251e-01" nType="0">
          <Node pos="l" depth="2" NCoef="0" IVar="-1" Cut="0.0000000000000000e+00" cType="1" res="2.3269949015229940e-03" rms="4.9404880404472351e-01" purity="5.8706426620483398e-01" nType="-99"/>
          <Node pos="r" depth="2" NCoef="0" IVar="-1" Cut="0.0000000000000000e+00" cType="1" res="-9.5931272953748703e-03" rms="3.9818099141120911e-01" purity="1.9808718562126160e-01" nType="-99"/>
        </Node>
      </Node>
    </BinaryTree>
    <BinaryTree type="DecisionTree" boostWeight="1.0000000000000000e+00" itree="27">
      <Node pos="s" depth="0" NCoef="0" IVar="2" Cut="4.0896472334861755e-01" cType="0" res="-4.1346237063407898e-02" rms="4.7643035650253296e-01" purity="4.0877306461334229e-01" nType="0">
        <Node pos="l" depth="1" NCoef="0" IVar="-1" Cut="0.0000000000000000e+00" cType="1" res="1.0539314709603786e-02" rms="4.7242286801338196e-01" purity="6.5807878971099854e-01" nType="-99"/>
        <Node pos="r" depth="1" NCoef="0" IVar="3" Cut="1.4333688020706177e+00" cType="1" res="-6.1793867498636246e-02" rms="4.7382247447967529e-01" purity="3.6955907940864563e-01" nType="0">
          <Node pos="l" depth="2" NCoef="0" IVar="-1" Cut="0.0000000000000000e+00" cType="1" res="-2.6609483174979687e-03" rms="4.7933259606361389e-01" purity="3.9261740446090698e-01" nType="-99"/>
          <Node pos="r" depth="2" NCoef="0" IVar="-1" Cut="0.0000000000000000e+00" cType="1" res="-9.0455384925007820e-03" rms="4.0672436356544495e-01" purity="2.0996904373168945e-01" nType="-99"/>
        </Node>
      </Node>
    </BinaryTree>
    <BinaryTree type="DecisionTree" boostWeight="1.0000000000000000e+00" itree="28">
      <Node pos="s" depth="0" NCoef="0" IVar="2" Cut="1.9163283705711365e-01" cType="0" res="-3.9129134267568588e-02" rms="4.7542032599449158e-01" purity="4.1100490093231201e-01" nType="0">
        <Node pos="l" depth="1" NCoef="0" IVar="-1" Cut="0.0000000000000000e+00" cType="1" res="2.3067421279847622e-03" rms="4.9067294597625732e-01" purity="5.5523532629013062e-01" nType="-99"/>
        <Node pos="r" depth="1" NCoef="0" IVar="3" Cut="-1.7211549282073975e+00" cType="0" res="-8.4216155111789703e-02" rms="4.5955035090446472e-01" purity="3.1581789255142212e-01" nType="0">
          <Node pos="l" depth="2" NCoef="0" IVar="-1" Cut="0.0000000000000000e+00" cType="1" res="-4.5414972119033337e-03" rms="4.6628525853157043e-01" purity="3.3384335041046143e-01" nType="-99"/>
          <Node pos="r" depth="2" NCoef="0" IVar="-1" Cut="0.0000000000000000e+00" cType="1" res="-1.1223592795431614e-02" rms="3.5999327898025513e-01" purity="1.5291689336299896e-01" nType="-99"/>
        </Node>
      </Node>
    </BinaryTree>
    <BinaryTree type="DecisionTree" boostWeight="1.0000000000000000e+00" itree="29">
      <Node pos="s" depth="0" NCoef="0" IVar="2" Cut="5.1988351345062256e-01" cType="0" res="-4.6196326613426208e-02" rms="4.7521793842315674e-01" purity="4.0129742026329041e-01" nType="0">
        <Node pos="l" depth="1" NCoef="0" IVar="-1" Cut="0.0000000000000000e+00" cType="1" res="1.3975877314805984e-02" rms="4.5582097768783569e-01" purity="7.0459479093551636e-01" nType="-99"/>
        <Node pos="r" depth="1" NCoef="0" IVar="3" Cut="-1.6062003374099731e+00" cType="0" res="-6.1669595539569855e-02" rms="4.7410234808921814e-01" purity="3.7258622050285339e-01" nType="0">
          <Node pos="l" depth="2" NCoef="0" IVar="-1" Cut="0.0000000000000000e+00" cType="1" res="-2.8942858334630728e-03" rms="4.7887787222862244e-01" purity="3.9052790403366089e-01" nType="-99"/>
          <Node pos="r" depth="2" NCoef="0" IVar="-1" Cut="0.0000000000000000e+00" cType="1" res="-9.6184536814689636e-03" rms="4.0948355197906494e-01" purity="2.2588704526424408e-01" nType="-99"/>
        </Node>
      </Node>
    </BinaryTree>
    <BinaryTree type="DecisionTree" boostWeight="1.0000000000000000e+00" itree="30">
      <Node pos="s" depth="0" NCoef="0" IVar="3" Cut="1.4333688020706177e+00" cType="1" res="-3.9782397449016571e-02" rms="4.7564572095870972e-01" purity="4.0882807970046997e-01" nType="0">
        <Node pos="l" depth="1" NCoef="0" IVar="-1" Cut="0.0000000000000000e+00" cType="1" res="-1.4880582457408309e-03" rms="4.7922646999359131e-01" purity="4.3043786287307739e-01" nType="-99"/>
        <Node pos="r" depth="1" NCoef="0" IVar="0" Cut="-6.6761684417724609e-01" cType="1" res="-1.7503702640533447e-01" rms="4.2466169595718384e-01" purity="2.5008311867713928e-01" nType="0">
          <Node pos="l" depth="2" NCoef="0" IVar="-1" Cut="0.0000000000000000e+00" cType="1" res="-3.2533896155655384e-03" rms="4.5931267738342285e-01" purity="3.6794033646583557e-01" nType="-99"/>
          <Node pos="r" depth="2" NCoef="0" IVar="-1" Cut="0.0000000000000000e+00" cType="1" res="-9.3848900869488716e-03" rms="4.1201415657997131e-01" purity="2.2630651295185089e-01" nType="-99"/>
        </Node>
      </Node>
    </BinaryTree>
    <BinaryTree type="DecisionTree" boostWeight="1.0000000000000000e+00" itree="31">
      <Node pos="s" depth="0" NCoef="0" IVar="2" Cut="9.9321231245994568e-02" cType="0" res="-4.2968887835741043e-02" rms="4.7436162829399109e-01" purity="4.0364646911621094e-01" nType="0">
        <Node pos="l" depth="1" NCoef="0" IVar="-1" Cut="0.0000000000000000e+00" cType="1" res="-4.3830816866829991e-04" rms="4.8950359225273132e-01" purity="4.7490367293357849e-01" nType="-99"/>
        <Node pos="r" depth="1" NCoef="0" IVar="3" Cut="-1.7211362123489380e+00" cType="0" res="-1.1681385338306427e-01" rms="4.3236294388771057e-01" purity="2.5730791687965393e-01" nType="0">
          <Node pos="l" depth="2" NCoef="0" IVar="-1" Cut="0.0000000000000000e+00" cType="1" res="-8.7625486776232719e-03" rms="4.4131186604499817e-01" purity="2.7417004108428955e-01" nType="-99"/>
          <Node pos="r" depth="2" NCoef="0" IVar="-1" Cut="0.0000000000000000e+00" cType="1" res="-1.3646552339196205e-02" rms="3.0116614699363708e-01" purity="9.9273070693016052e-02" nType="-99"/>
        </Node>
      </Node>
    </BinaryTree>
    <BinaryTree type="DecisionTree" boostWeight="1.0000000000000000e+00" itree="32">
      <Node pos="s" depth="0" NCoef="0" IVar="3" Cut="1.5915483236312866e+00" cType="1" res="-4.1284020990133286e-02" rms="4.7498965263366699e-01" purity="4.0407606959342957e-01" nType="0">
        <Node pos="l" depth="1" NCoef="0" IVar="-1" Cut="0.0000000000000000e+00" cType="1" res="-1.7353105358779430e-03" rms="4.7896572947502136e-01" purity="4.2628231644630432e-01" nType="-99"/>
        <Node pos="r" depth="1" NCoef="0" IVar="0" Cut="-6.6782075166702271e-01" cType="1" res="-1.7652046680450439e-01" rms="4.2076435685157776e-01" purity="2.4139568209648132e-01" nType="0">
          <Node pos="l" depth="2" NCoef="0" IVar="-1" Cut="0.0000000000000000e+00" cType="1" res="-7.7469612006098032e-04" rms="4.6977555751800537e-01" purity="4.1072815656661987e-01" nType="-99"/>
          <Node pos="r" depth="2" NCoef="0" IVar="-1" Cut="0.0000000000000000e+00" cType="1" res="-9.2514157295227051e-03" rms="4.0145936608314514e-01" purity="2.0692385733127594e-01" nType="-99"/>
        </Node>
      </Node>
    </BinaryTree>
    <BinaryTree type="DecisionTree" boostWeight="1.0000000000000000e+00" itree="33">
      <Node pos="s" depth="0" NCoef="0" IVar="3" Cut="1.4313538074493408e+00" cType="1" res="-3.3557407557964325e-02" rms="4.7556591033935547e-01" purity="4.0982252359390259e-01" nType="0">
        <Node pos="l" depth="1" NCoef="0" IVar="-1" Cut="0.0000000000000000e+00" cType="1" res="-1.0333452373743057e-03" rms="4.7926393151283264e-01" purity="4.3263447284698486e-01" nType="-99"/>
        <Node pos="r" depth="1" NCoef="0" IVar="0" Cut="-7.0507591962814331e-01" cType="1" res="-1.6859334707260132e-01" rms="4.2446556687355042e-01" purity="2.4700161814689636e-01" nType="0">
          <Node pos="l" depth="2" NCoef="0" IVar="-1" Cut="0.0000000000000000e+00" cType="1" res="-7.3125923518091440e-04" rms="4.6989512443542480e-01" purity="4.0148797631263733e-01" nType="-99"/>
          <Node pos="r" depth="2" NCoef="0" IVar="-1" Cut="0.0000000000000000e+00" cType="1" res="-8.7979184463620186e-03" rms="4.0885856747627258e-01" purity="2.1903775632381439e-01" nType="-99"/>
        </Node>
      </Node>
    </BinaryTree>
    <BinaryTree type="DecisionTree" boostWeight="1.0000000000000000e+00" itree="34">
      <Node pos="s" depth="0" NCoef="0" IVar="2" Cut="3.4361743927001953e-01" cType="0" res="-4.6572554856538773e-02" rms="4.7237461805343628e-01" purity="3.9690357446670532e-01" nType="0">
        <Node pos="l" depth="1" NCoef="0" IVar="-1" Cut="0.0000000000000000e+00" cType="1" res="5.3546293638646603e-03" rms="4.8304861783981323e-01" purity="6.1557233333587646e-01" nType="-99"/>
        <Node pos="r" depth="1" NCoef="0" IVar="3" Cut="1.4402174949645996e+00" cType="1" res="-6.9479443132877350e-02" rms="4.6688404679298401e-01" purity="3.4476044774055481e-01" nType="0">
          <Node pos="l" depth="2" NCoef="0" IVar="-1" Cut="0.0000000000000000e+00" cType="1" res="-3.5290829837322235e-03" rms="4.7371187806129456e-01" purity="3.6610794067382812e-01" nType="-99"/>
          <Node pos="r" depth="2" NCoef="0" IVar="-1" Cut="0.0000000000000000e+00" cType="1" res="-9.0299453586339951e-03" rms="4.0108403563499451e-01" purity="2.0311690866947174e-01" nType="-99"/>
        </Node>
      </Node>
    </BinaryTree>
    <BinaryTree type="DecisionTree" boostWeight="1.0000000000000000e+00" itree="35">
      <Node pos="s" depth="0" NCoef="0" IVar="2" Cut="8.8866716623306274e-01" cType="0" res="-3.7692565470933914e-02" rms="4.7338131070137024e-01" purity="4.0343609452247620e-01" nType="0">
        <Node pos="l" depth="1" NCoef="0" IVar="-1" Cut="0.0000000000000000e+00" cType="1" res="3.0602544546127319e-02" rms="3.7059533596038818e-01" purity="8.3585715293884277e-01" nType="-99"/>
        <Node pos="r" depth="1" NCoef="0" IVar="3" Cut="1.4337224960327148e+00" cType="1" res="-4.5963861048221588e-02" rms="4.7369799017906189e-01" purity="3.9033973217010498e-01" nType="0">
          <Node pos="l" depth="2" NCoef="0" IVar="-1" Cut="0.0000000000000000e+00" cType="1" res="-2.0003027748316526e-03" rms="4.7873505949974060e-01" purity="4.1154357790946960e-01" nType="-99"/>
          <Node pos="r" depth="2" NCoef="0" IVar="-1" Cut="0.0000000000000000e+00" cType="1" res="-8.0330297350883484e-03" rms="4.1962486505508423e-01" purity="2.4138061702251434e-01" nType="-99"/>
        </Node>
      </Node>
    </BinaryTree>
    <BinaryTree type="DecisionTree" boostWeight="1.0000000000000000e+00" itree="36">
      <Node pos="s" depth="0" NCoef="0" IVar="2" Cut="1.2584981322288513e-01" cType="0" res="-2.7410419657826424e-02" rms="4.7492069005966187e-01" purity="4.1364118456840515e-01" nType="0">
        <Node pos="l" depth="1" NCoef="0" IVar="-1" Cut="0.0000000000000000e+00" cType="1" res="8.0916756996884942e-04" rms="4.8896232247352600e-01" purity="5.0021344423294067e-01" nType="-99"/>
        <Node pos="r" depth="1" NCoef="0" IVar="3" Cut="-1.8120741844177246e+00" cType="0" res="-8.5229121148586273e-02" rms="4.4761827588081360e-01" purity="2.8873521089553833e-01" nType="0">
          <Node pos="l" depth="2" NCoef="0" IVar="-1" Cut="0.0000000000000000e+00" cType="1" res="-5.9695118106901646e-03" rms="4.5300713181495667e-01" purity="3.0087935924530029e-01" nType="-99"/>
          <Node pos="r" depth="2" NCoef="0" IVar="-1" Cut="0.0000000000000000e+00" cType="1" res="-1.4634700492024422e-02" rms="3.3573850989341736e-01" purity="1.2715958058834076e-01" nType="-99"/>
        </Node>
      </Node>
    </BinaryTree>
    <BinaryTree type="DecisionTree" boostWeight="1.0000000000000000e+00" itree="37">
      <Node pos="s" depth="0" NCoef="0" IVar="2" Cut="4.5153993368148804e-01" cType="0" res="-3.1620465219020844e-02" rms="4.7221168875694275e-01" purity="4.0724906325340271e-01" nType="0">
        <Node pos="l" depth="1" NCoef="0" IVar="-1" Cut="0.0000000000000000e+00" cType="1" res="1.7322516068816185e-02" rms="4.5008632540702820e-01" purity="7.0998466014862061e-01" nType="-99"/>
        <Node pos="r" depth="1" NCoef="0" IVar="3" Cut="1.4263161420822144e+00" cType="1" res="-5.0508312880992889e-02" rms="4.7140654921531677e-01" purity="3.7009882926940918e-01" nType="0">
          <Node pos="l" depth="2" NCoef="0" IVar="-1" Cut="0.0000000000000000e+00" cType="1" res="-2.1661182399839163e-03" rms="4.7743061184883118e-01" purity="3.9293316006660461e-01" nType="-99"/>
          <Node pos="r" depth="2" NCoef="0" IVar="-1" Cut="0.0000000000000000e+00" cType="1" res="-7.9571735113859177e-03" rms="4.0871301293373108e-01" purity="2.1748267114162445e-01" nType="-99"/>
        </Node>
      </Node>
    </BinaryTree>
    <BinaryTree type="DecisionTree" boostWeight="1.0000000000000000e+00" itree="38">
      <Node pos="s" depth="0" NCoef="0" IVar="2" Cut="9.0678024291992188e-01" cType="0" res="-3.6625552922487259e-02" rms="4.7263938188552856e-01" purity="4.0376928448677063e-01" nType="0">
        <Node pos="l" depth="1" NCoef="0" IVar="-1" Cut="0.0000000000000000e+00" cType="1" res="2.8009267523884773e-02" rms="3.6753463745117188e-01" purity="8.3911514282226562e-01" nType="-99"/>
        <Node pos="r" depth="1" NCoef="0" IVar="3" Cut="1.4263161420822144e+00" cType="1" res="-4.3985988944768906e-02" rms="4.7334840893745422e-01" purity="3.9105227589607239e-01" nType="0">
          <Node pos="l" depth="2" NCoef="0" IVar="-1" Cut="0.0000000000000000e+00" cType="1" res="-1.9799203146249056e-03" rms="4.7852328419685364e-01" purity="4.1227543354034424e-01" nType="-99"/>
          <Node pos="r" depth="2" NCoef="0" IVar="-1" Cut="0.0000000000000000e+00" cType="1" res="-8.3423303440213203e-03" rms="4.1963082551956177e-01" purity="2.4340146780014038e-01" nType="-99"/>
        </Node>
      </Node>
    </BinaryTree>
    <BinaryTree type="DecisionTree" boostWeight="1.0000000000000000e+00" itree="39">
      <Node pos="s" depth="0" NCoef="0" IVar="2" Cut="9.4673991203308105e-02" cType="0" res="-3.2550700008869171e-02" rms="4.7318482398986816e-01" purity="4.0570431947708130e-01" nType="0">
        <Node pos="l" depth="1" NCoef="0" IVar="-1" Cut="0.0000000000000000e+00" cType="1" res="-1.6448662790935487e-04" rms="4.8767295479774475e-01" purity="4.7333711385726929e-01" nType="-99"/>
        <Node pos="r" depth="1" NCoef="0" IVar="3" Cut="-1.7754743099212646e+00" cType="0" res="-9.7273923456668854e-02" rms="4.3327564001083374e-01" purity="2.5973060727119446e-01" nType="0">
          <Node pos="l" depth="2" NCoef="0" IVar="-1" Cut="0.0000000000000000e+00" cType="1" res="-7.0578549057245255e-03" rms="4.4105449318885803e-01" purity="2.7439638972282410e-01" nType="-99"/>
          <Node pos="r" depth="2" NCoef="0" IVar="-1" Cut="0.0000000000000000e+00" cType="1" res="-1.3863270170986652e-02" rms="3.0382025241851807e-01" purity="1.0003317892551422e-01" nType="-99"/>
        </Node>
      </Node>
    </BinaryTree>
    <BinaryTree type="DecisionTree" boostWeight="1.0000000000000000e+00" itree="40">
      <Node pos="s" depth="0" NCoef="0" IVar="2" Cut="9.7638264298439026e-02" cType="0" res="-2.7390483766794205e-02" rms="4.7395619750022888e-01" purity="4.1097125411033630e-01" nType="0">
        <Node pos="l" depth="1" NCoef="0" IVar="-1" Cut="0.0000000000000000e+00" cType="1" res="2.1311390446498990e-04" rms="4.8800903558731079e-01" purity="4.8044645786285400e-01" nType="-99"/>
        <Node pos="r" depth="1" NCoef="0" IVar="0" Cut="6.7824870347976685e-01" cType="0" res="-9.3859970569610596e-02" rms="4.3481022119522095e-01" purity="2.6139491796493530e-01" nType="0">
          <Node pos="l" depth="2" NCoef="0" IVar="-1" Cut="0.0000000000000000e+00" cType="1" res="-1.0044444352388382e-03" rms="4.6803238987922668e-01" purity="3.3902943134307861e-01" nType="-99"/>
          <Node pos="r" depth="2" NCoef="0" IVar="-1" Cut="0.0000000000000000e+00" cType="1" res="-9.4420397654175758e-03" rms="4.2503252625465393e-01" purity="2.4408473074436188e-01" nType="-99"/>
        </Node>
      </Node>
    </BinaryTree>
    <BinaryTree type="DecisionTree" boostWeight="1.0000000000000000e+00" itree="41">
      <Node pos="s" depth="0" NCoef="0" IVar="3" Cut="1.4333688020706177e+00" cType="1" res="-2.9422387480735779e-02" rms="4.7437506914138794e-01" purity="4.0753188729286194e-01" nType="0">
        <Node pos="l" depth="1" NCoef="0" IVar="-1" Cut="0.0000000000000000e+00" cType="1" res="-8.6483976338058710e-04" rms="4.7932079434394836e-01" purity="4.3085607886314392e-01" nType="-99"/>
        <Node pos="r" depth="1" NCoef="0" IVar="1" Cut="1.1128306388854980e+00" cType="0" res="-1.4759400486946106e-01" rms="4.2039430141448975e-01" purity="2.4782645702362061e-01" nType="0">
          <Node pos="l" depth="2" NCoef="0" IVar="-1" Cut="0.0000000000000000e+00" cType="1" res="-2.9412566218525171e-03" rms="4.6056270599365234e-01" purity="3.3183482289314270e-01" nType="-99"/>
          <Node pos="r" depth="2" NCoef="0" IVar="-1" Cut="0.0000000000000000e+00" cType="1" res="-1.1111642234027386e-02" rms="3.5388147830963135e-01" purity="1.6142021119594574e-01" nType="-99"/>
        </Node>
      </Node>
    </BinaryTree>
    <BinaryTree type="DecisionTree" boostWeight="1.0000000000000000e+00" itree="42">
      <Node pos="s" depth="0" NCoef="0" IVar="3" Cut="-1.6084349155426025e+00" cType="0" res="-2.7007808908820152e-02" rms="4.7258695960044861e-01" purity="4.0897607803344727e-01" nType="0">
        <Node pos="l" depth="1" NCoef="0" IVar="-1" Cut="0.0000000000000000e+00" cType="1" res="-6.9157185498625040e-04" rms="4.7560712695121765e-01" purity="4.2750829458236694e-01" nType="-99"/>
        <Node pos="r" depth="1" NCoef="0" IVar="1" Cut="-2.0458204746246338e+00" cType="1" res="-1.6627448797225952e-01" rms="4.2216920852661133e-01" purity="2.5795707106590271e-01" nType="0">
          <Node pos="l" depth="2" NCoef="0" IVar="-1" Cut="0.0000000000000000e+00" cType="1" res="6.3550341874361038e-03" rms="4.7644338011741638e-01" purity="4.8259416222572327e-01" nType="-99"/>
          <Node pos="r" depth="2" NCoef="0" IVar="-1" Cut="0.0000000000000000e+00" cType="1" res="-1.0378027334809303e-02" rms="4.0298897027969360e-01" purity="2.2375702857971191e-01" nType="-99"/>
        </Node>
      </Node>
    </BinaryTree>
    <BinaryTree type="DecisionTree" boostWeight="1.0000000000000000e+00" itree="43">
      <Node pos="s" depth="0" NCoef="0" IVar="2" Cut="9.3372774124145508e-01" cType="0" res="-3.3239632844924927e-02" rms="4.7248810529708862e-01" purity="4.0129575133323669e-01" nType="0">
        <Node pos="l" depth="1" NCoef="0" IVar="-1" Cut="0.0000000000000000e+00" cType="1" res="3.9850506931543350e-02" rms="3.4148001670837402e-01" purity="8.6509120464324951e-01" nType="-99"/>
        <Node pos="r" depth="1" NCoef="0" IVar="2" Cut="4.5555274933576584e-02" cType="0" res="-3.9638657122850418e-02" rms="4.7341883182525635e-01" purity="3.8998553156852722e-01" nType="0">
          <Node pos="l" depth="2" NCoef="0" IVar="-1" Cut="0.0000000000000000e+00" cType="1" res="-1.7443657852709293e-03" rms="4.8342439532279968e-01" purity="4.1954284906387329e-01" nType="-99"/>
          <Node pos="r" depth="2" NCoef="0" IVar="-1" Cut="0.0000000000000000e+00" cType="1" res="-1.4639720320701599e-02" rms="3.7922492623329163e-01" purity="1.7639343440532684e-01" nType="-99"/>
        </Node>
      </Node>
    </BinaryTree>
    <BinaryTree type="DecisionTree" boostWeight="1.0000000000000000e+00" itree="44">
      <Node pos="s" depth="0" NCoef="0" IVar="3" Cut="1.4333688020706177e+00" cType="1" res="-2.1845320239663124e-02" rms="4.7285410761833191e-01" purity="4.1277879476547241e-01" nType="0">
        <Node pos="l" depth="1" NCoef="0" IVar="-1" Cut="0.0000000000000000e+00" cType="1" res="-2.5021695182658732e-04" rms="4.7787261009216309e-01" purity="4.3796983361244202e-01" nType="-99"/>
        <Node pos="r" depth="1" NCoef="0" IVar="2" Cut="4.0474456548690796e-01" cType="0" res="-1.5440398454666138e-01" rms="4.1199856996536255e-01" purity="2.3434521257877350e-01" nType="0">
          <Node pos="l" depth="2" NCoef="0" IVar="-1" Cut="0.0000000000000000e+00" cType="1" res="5.5088447406888008e-03" rms="4.8149245977401733e-01" purity="6.1037760972976685e-01" nType="-99"/>
          <Node pos="r" depth="2" NCoef="0" IVar="-1" Cut="0.0000000000000000e+00" cType="1" res="-8.3866966888308525e-03" rms="3.9683383703231812e-01" purity="1.9028887152671814e-01" nType="-99"/>
        </Node>
      </Node>
    </BinaryTree>
    <BinaryTree type="DecisionTree" boostWeight="1.0000000000000000e+00" itree="45">
      <Node pos="s" depth="0" NCoef="0" IVar="3" Cut="1.4484814405441284e+00" cType="1" res="-1.9692022353410721e-02" rms="4.7272124886512756e-01" purity="4.1361939907073975e-01" nType="0">
        <Node pos="l" depth="1" NCoef="0" IVar="-1" Cut="0.0000000000000000e+00" cType="1" res="-1.3478085747919977e-04" rms="4.7784554958343506e-01" purity="4.3890330195426941e-01" nType="-99"/>
        <Node pos="r" depth="1" NCoef="0" IVar="1" Cut="1.1222956180572510e+00" cType="0" res="-1.4109584689140320e-01" rms="4.1639739274978638e-01" purity="2.4141369760036469e-01" nType="0">
          <Node pos="l" depth="2" NCoef="0" IVar="-1" Cut="0.0000000000000000e+00" cType="1" res="-3.5361933987587690e-03" rms="4.5784446597099304e-01" purity="3.2753649353981018e-01" nType="-99"/>
          <Node pos="r" depth="2" NCoef="0" IVar="-1" Cut="0.0000000000000000e+00" cType="1" res="-1.0162016376852989e-02" rms="3.5574030876159668e-01" purity="1.5996527671813965e-01" nType="-99"/>
        </Node>
      </Node>
    </BinaryTree>
    <BinaryTree type="DecisionTree" boostWeight="1.0000000000000000e+00" itree="46">
      <Node pos="s" depth="0" NCoef="0" IVar="3" Cut="-1.6062984466552734e+00" cType="0" res="-2.5885619223117828e-02" rms="4.7106736898422241e-01" purity="4.0640893578529358e-01" nType="0">
        <Node pos="l" depth="1" NCoef="0" IVar="-1" Cut="0.0000000000000000e+00" cType="1" res="-7.1694742655381560e-04" rms="4.7425642609596252e-01" purity="4.2484077811241150e-01" nType="-99"/>
        <Node pos="r" depth="1" NCoef="0" IVar="1" Cut="-9.4229853153228760e-01" cType="1" res="-1.5759907662868500e-01" rms="4.2187613248825073e-01" purity="2.5700563192367554e-01" nType="0">
          <Node pos="l" depth="2" NCoef="0" IVar="-1" Cut="0.0000000000000000e+00" cType="1" res="-5.5822790600359440e-03" rms="4.5281627774238586e-01" purity="3.3768191933631897e-01" nType="-99"/>
          <Node pos="r" depth="2" NCoef="0" IVar="-1" Cut="0.0000000000000000e+00" cType="1" res="-1.0949604213237762e-02" rms="3.6241838335990906e-01" purity="1.6296693682670593e-01" nType="-99"/>
        </Node>
      </Node>
    </BinaryTree>
    <BinaryTree type="DecisionTree" boostWeight="1.0000000000000000e+00" itree="47">
      <Node pos="s" depth="0" NCoef="0" IVar="3" Cut="-1.6060429811477661e+00" cType="0" res="-3.5090282559394836e-02" rms="4.7171384096145630e-01" purity="3.9689338207244873e-01" nType="0">
        <Node pos="l" depth="1" NCoef="0" IVar="-1" Cut="0.0000000000000000e+00" cType="1" res="-1.5033623203635216e-03" rms="4.7493889927864075e-01" purity="4.1210743784904480e-01" nType="-99"/>
        <Node pos="r" depth="1" NCoef="0" IVar="1" Cut="-1.7341465950012207e+00" cType="1" res="-1.4350226521492004e-01" rms="4.2846620082855225e-01" purity="2.6839485764503479e-01" nType="0">
          <Node pos="l" depth="2" NCoef="0" IVar="-1" Cut="0.0000000000000000e+00" cType="1" res="2.4298708885908127e-03" rms="4.8351195454597473e-01" purity="4.6241983771324158e-01" nType="-99"/>
          <Node pos="r" depth="2" NCoef="0" IVar="-1" Cut="0.0000000000000000e+00" cType="1" res="-1.0308550670742989e-02" rms="3.9411482214927673e-01" purity="2.0638914406299591e-01" nType="-99"/>
        </Node>
      </Node>
    </BinaryTree>
    <BinaryTree type="DecisionTree" boostWeight="1.0000000000000000e+00" itree="48">
      <Node pos="s" depth="0" NCoef="0" IVar="2" Cut="8.0819182097911835e-02" cType="0" res="-2.3925308138132095e-02" rms="4.7147765755653381e-01" purity="4.0782350301742554e-01" nType="0">
        <Node pos="l" depth="1" NCoef="0" IVar="-1" Cut="0.0000000000000000e+00" cType="1" res="2.0216614939272404e-04" rms="4.8590615391731262e-01" purity="4.6838751435279846e-01" nType="-99"/>
        <Node pos="r" depth="1" NCoef="0" IVar="2" Cut="3.5304702818393707e-02" cType="0" res="-1.0234846174716949e-01" rms="4.1728213429450989e-01" purity="2.3294542729854584e-01" nType="0">
          <Node pos="l" depth="2" NCoef="0" IVar="-1" Cut="0.0000000000000000e+00" cType="1" res="-6.4318459481000900e-03" rms="4.4309267401695251e-01" purity="2.7464151382446289e-01" nType="-99"/>
          <Node pos="r" depth="2" NCoef="0" IVar="-1" Cut="0.0000000000000000e+00" cType="1" res="-1.3504492118954659e-02" rms="3.4760624170303345e-01" purity="1.4148087799549103e-01" nType="-99"/>
        </Node>
      </Node>
    </BinaryTree>
    <BinaryTree type="DecisionTree" boostWeight="1.0000000000000000e+00" itree="49">
      <Node pos="s" depth="0" NCoef="0" IVar="2" Cut="1.2656752765178680e-01" cType="0" res="-1.3097261078655720e-02" rms="4.7367247939109802e-01" purity="4.1755422949790955e-01" nType="0">
        <Node pos="l" depth="1" NCoef="0" IVar="-1" Cut="0.0000000000000000e+00" cType="1" res="1.3480441411957145e-03" rms="4.8785674571990967e-01" purity="5.0581067800521851e-01" nType="-99"/>
        <Node pos="r" depth="1" NCoef="0" IVar="3" Cut="-1.8114180564880371e+00" cType="0" res="-5.9578023850917816e-02" rms="4.4906994700431824e-01" purity="2.9467067122459412e-01" nType="0">
          <Node pos="l" depth="2" NCoef="0" IVar="-1" Cut="0.0000000000000000e+00" cType="1" res="-4.0169558487832546e-03" rms="4.5555153489112854e-01" purity="3.0861839652061462e-01" nType="-99"/>
          <Node pos="r" depth="2" NCoef="0" IVar="-1" Cut="0.0000000000000000e+00" cType="1" res="-1.2316008098423481e-02" rms="3.2962357997894287e-01" purity="1.2325714528560638e-01" nType="-99"/>
        </Node>
      </Node>
    </BinaryTree>
    <BinaryTree type="DecisionTree" boostWeight="1.0000000000000000e+00" itree="50">
      <Node pos="s" depth="0" NCoef="0" IVar="2" Cut="1.7688070237636566e-01" cType="0" res="-2.2778499871492386e-02" rms="4.7059002518653870e-01" purity="4.0768429636955261e-01" nType="0">
        <Node pos="l" depth="1" NCoef="0" IVar="-1" Cut="0.0000000000000000e+00" cType="1" res="2.6618333067744970e-03" rms="4.8752608895301819e-01" purity="5.4799157381057739e-01" nType="-99"/>
        <Node pos="r" depth="1" NCoef="0" IVar="3" Cut="-1.6566740274429321e+00" cType="0" res="-6.3938520848751068e-02" rms="4.5328894257545471e-01" purity="3.0393362045288086e-01" nType="0">
          <Node pos="l" depth="2" NCoef="0" IVar="-1" Cut="0.0000000000000000e+00" cType="1" res="-3.5269623622298241e-03" rms="4.6020033955574036e-01" purity="3.1990885734558105e-01" nType="-99"/>
          <Node pos="r" depth="2" NCoef="0" IVar="-1" Cut="0.0000000000000000e+00" cType="1" res="-9.7714643925428391e-03" rms="3.6521464586257935e-01" purity="1.6056357324123383e-01" nType="-99"/>
        </Node>
      </Node>
    </BinaryTree>
    <BinaryTree type="DecisionTree" boostWeight="1.0000000000000000e+00" itree="51">
      <Node pos="s" depth="0" NCoef="0" IVar="1" Cut="1.9867250919342041e+00" cType="1" res="-1.9176013767719269e-02" rms="4.7154363989830017e-01" purity="4.1200694441795349e-01" nType="0">
        <Node pos="l" depth="1" NCoef="0" IVar="-1" Cut="0.0000000000000000e+00" cType="1" res="-5.0723081221804023e-04" rms="4.7334685921669006e-01" purity="4.2631012201309204e-01" nType="-99"/>
        <Node pos="r" depth="1" NCoef="0" IVar="2" Cut="2.1883144974708557e-01" cType="0" res="-1.9740663468837738e-01" rms="4.0565332770347595e-01" purity="2.1260026097297668e-01" nType="0">
          <Node pos="l" depth="2" NCoef="0" IVar="-1" Cut="0.0000000000000000e+00" cType="1" res="-7.3208264075219631e-03" rms="3.9807939529418945e-01" purity="2.2228492796421051e-01" nType="-99"/>
          <Node pos="r" depth="2" NCoef="0" IVar="-1" Cut="0.0000000000000000e+00" cType="1" res="-7.0914034731686115e-03" rms="4.0318068861961365e-01" purity="2.0765224099159241e-01" nType="-99"/>
        </Node>
      </Node>
    </BinaryTree>
    <BinaryTree type="DecisionTree" boostWeight="1.0000000000000000e+00" itree="52">
      <Node pos="s" depth="0" NCoef="0" IVar="3" Cut="1.4333688020706177e+00" cType="1" res="-2.7696913108229637e-02" rms="4.7110968828201294e-01" purity="4.0260210633277893e-01" nType="0">
        <Node pos="l" depth="1" NCoef="0" IVar="-1" Cut="0.0000000000000000e+00" cType="1" res="-1.0725357569754124e-03" rms="4.7610151767730713e-01" purity="4.2360913753509521e-01" nType="-99"/>
        <Node pos="r" depth="1" NCoef="0" IVar="1" Cut="5.4264992475509644e-01" cType="0" res="-1.2775322794914246e-01" rms="4.1931915283203125e-01" purity="2.4824999272823334e-01" nType="0">
          <Node pos="l" depth="2" NCoef="0" IVar="-1" Cut="0.0000000000000000e+00" cType="1" res="-4.8754978924989700e-03" rms="4.4223371148109436e-01" purity="2.9347816109657288e-01" nType="-99"/>
          <Node pos="r" depth="2" NCoef="0" IVar="-1" Cut="0.0000000000000000e+00" cType="1" res="-1.7838606610894203e-02" rms="3.0448374152183533e-01" purity="1.1164439469575882e-01" nType="-99"/>
        </Node>
      </Node>
    </BinaryTree>
    <BinaryTree type="DecisionTree" boostWeight="1.0000000000000000e+00" itree="53">
      <Node pos="s" depth="0" NCoef="0" IVar="2" Cut="9.4835087656974792e-02" cType="0" res="-1.7335796728730202e-02" rms="4.7185787558555603e-01" purity="4.1072371602058411e-01" nType="0">
        <Node pos="l" depth="1" NCoef="0" IVar="-1" Cut="0.0000000000000000e+00" cType="1" res="6.3419691286981106e-04" rms="4.8671224713325500e-01" purity="4.8074483871459961e-01" nType="-99"/>
        <Node pos="r" depth="1" NCoef="0" IVar="2" Cut="1.3747375458478928e-02" cType="0" res="-7.5632154941558838e-02" rms="4.3222051858901978e-01" purity="2.5892198085784912e-01" nType="0">
          <Node pos="l" depth="2" NCoef="0" IVar="-1" Cut="0.0000000000000000e+00" cType="1" res="-5.9524383395910263e-03" rms="4.3816053867340088e-01" purity="2.6870948076248169e-01" nType="-99"/>
          <Node pos="r" depth="2" NCoef="0" IVar="-1" Cut="0.0000000000000000e+00" cType="1" res="-2.4191161617636681e-02" rms="2.4821139872074127e-01" purity="6.5674431622028351e-02" nType="-99"/>
        </Node>
      </Node>
    </BinaryTree>
    <BinaryTree type="DecisionTree" boostWeight="1.0000000000000000e+00" itree="54">
      <Node pos="s" depth="0" NCoef="0" IVar="2" Cut="5.3276624530553818e-02" cType="0" res="-1.4284240081906319e-02" rms="4.7217223048210144e-01" purity="4.1460749506950378e-01" nType="0">
        <Node pos="l" depth="1" NCoef="0" IVar="-1" Cut="0.0000000000000000e+00" cType="1" res="2.3119624529499561e-04" rms="4.8369222879409790e-01" purity="4.5483899116516113e-01" nType="-99"/>
        <Node pos="r" depth="1" NCoef="0" IVar="0" Cut="8.2678997516632080e-01" cType="0" res="-1.1691313982009888e-01" rms="3.8346591591835022e-01" purity="1.8245017528533936e-01" nType="0">
          <Node pos="l" depth="2" NCoef="0" IVar="-1" Cut="0.0000000000000000e+00" cType="1" res="4.7416500747203827e-03" rms="4.7255468368530273e-01" purity="3.4703817963600159e-01" nType="-99"/>
          <Node pos="r" depth="2" NCoef="0" IVar="-1" Cut="0.0000000000000000e+00" cType="1" res="-1.2393402867019176e-02" rms="3.6684057116508484e-01" purity="1.6298636794090271e-01" nType="-99"/>
        </Node>
      </Node>
    </BinaryTree>
    <BinaryTree type="DecisionTree" boostWeight="1.0000000000000000e+00" itree="55">
      <Node pos="s" depth="0" NCoef="0" IVar="3" Cut="-1.8732893466949463e+00" cType="0" res="-2.3088358342647552e-02" rms="4.7001016139984131e-01" purity="4.0397980809211731e-01" nType="0">
        <Node pos="l" depth="1" NCoef="0" IVar="-1" Cut="0.0000000000000000e+00" cType="1" res="-7.9960189759731293e-04" rms="4.7321414947509766e-01" purity="4.1752710938453674e-01" nType="-99"/>
        <Node pos="r" depth="1" NCoef="0" IVar="1" Cut="-1.7856316566467285e+00" cType="1" res="-2.0028623938560486e-01" rms="3.7522324919700623e-01" purity="1.9469881057739258e-01" nType="0">
          <Node pos="l" depth="2" NCoef="0" IVar="-1" Cut="0.0000000000000000e+00" cType="1" res="2.0156400278210640e-03" rms="4.5684003829956055e-01" purity="4.4782021641731262e-01" nType="-99"/>
          <Node pos="r" depth="2" NCoef="0" IVar="-1" Cut="0.0000000000000000e+00" cType="1" res="-1.1544859036803246e-02" rms="3.3006444573402405e-01" purity="1.3192859292030334e-01" nType="-99"/>
        </Node>
      </Node>
    </BinaryTree>
    <BinaryTree type="DecisionTree" boostWeight="1.0000000000000000e+00" itree="56">
      <Node pos="s" depth="0" NCoef="0" IVar="2" Cut="9.0635615587234497e-01" cType="0" res="-1.4343123883008957e-02" rms="4.7158026695251465e-01" purity="4.1245186328887939e-01" nType="0">
        <Node pos="l" depth="1" NCoef="0" IVar="-1" Cut="0.0000000000000000e+00" cType="1" res="4.3004747480154037e-02" rms="2.9728221893310547e-01" purity="9.0118193626403809e-01" nType="-99"/>
        <Node pos="r" depth="1" NCoef="0" IVar="3" Cut="-1.6073058843612671e+00" cType="0" res="-2.1231420338153839e-02" rms="4.7329658269882202e-01" purity="3.9972132444381714e-01" nType="0">
          <Node pos="l" depth="2" NCoef="0" IVar="-1" Cut="0.0000000000000000e+00" cType="1" res="-5.0789903616532683e-04" rms="4.7683128714561462e-01" purity="4.1611579060554504e-01" nType="-99"/>
          <Node pos="r" depth="2" NCoef="0" IVar="-1" Cut="0.0000000000000000e+00" cType="1" res="-8.7389424443244934e-03" rms="4.2178633809089661e-01" purity="2.5467479228973389e-01" nType="-99"/>
        </Node>
      </Node>
    </BinaryTree>
    <BinaryTree type="DecisionTree" boostWeight="1.0000000000000000e+00" itree="57">
      <Node pos="s" depth="0" NCoef="0" IVar="1" Cut="1.9811339378356934e+00" cType="1" res="-2.1543009206652641e-02" rms="4.6992945671081543e-01" purity="4.0437677502632141e-01" nType="0">
        <Node pos="l" depth="1" NCoef="0" IVar="-1" Cut="0.0000000000000000e+00" cType="1" res="-7.6369143789634109e-04" rms="4.7203731536865234e-01" purity="4.1652405261993408e-01" nType="-99"/>
        <Node pos="r" depth="1" NCoef="0" IVar="3" Cut="7.5023663043975830e-01" cType="0" res="-1.7686240375041962e-01" rms="4.0735089778900146e-01" purity="2.2615782916545868e-01" nType="0">
          <Node pos="l" depth="2" NCoef="0" IVar="-1" Cut="0.0000000000000000e+00" cType="1" res="-4.8276400193572044e-03" rms="4.2159023880958557e-01" purity="2.5503176450729370e-01" nType="-99"/>
          <Node pos="r" depth="2" NCoef="0" IVar="-1" Cut="0.0000000000000000e+00" cType="1" res="-1.2962411157786846e-02" rms="3.5702261328697205e-01" purity="1.5904803574085236e-01" nType="-99"/>
        </Node>
      </Node>
    </BinaryTree>
    <BinaryTree type="DecisionTree" boostWeight="1.0000000000000000e+00" itree="58">
      <Node pos="s" depth="0" NCoef="0" IVar="3" Cut="-1.6068638563156128e+00" cType="0" res="-8.5805142298340797e-03" rms="4.7212404012680054e-01" purity="4.1718497872352600e-01" nType="0">
        <Node pos="l" depth="1" NCoef="0" IVar="-1" Cut="0.0000000000000000e+00" cType="1" res="3.5186632885597646e-04" rms="4.7524061799049377e-01" purity="4.3396782875061035e-01" nType="-99"/>
        <Node pos="r" depth="1" NCoef="0" IVar="1" Cut="-2.0862870216369629e+00" cType="1" res="-1.2853521108627319e-01" rms="4.2485234141349792e-01" purity="2.6710304617881775e-01" nType="0">
          <Node pos="l" depth="2" NCoef="0" IVar="-1" Cut="0.0000000000000000e+00" cType="1" res="9.2598823830485344e-03" rms="4.7100552916526794e-01" purity="5.0563234090805054e-01" nType="-99"/>
          <Node pos="r" depth="2" NCoef="0" IVar="-1" Cut="0.0000000000000000e+00" cType="1" res="-8.6275674402713776e-03" rms="4.1016036272048950e-01" purity="2.3478256165981293e-01" nType="-99"/>
        </Node>
      </Node>
    </BinaryTree>
    <BinaryTree type="DecisionTree" boostWeight="1.0000000000000000e+00" itree="59">
      <Node pos="s" depth="0" NCoef="0" IVar="2" Cut="7.6900023221969604e-01" cType="0" res="-2.0767971873283386e-02" rms="4.6890428662300110e-01" purity="4.0399080514907837e-01" nType="0">
        <Node pos="l" depth="1" NCoef="0" IVar="-1" Cut="0.0000000000000000e+00" cType="1" res="2.8350155800580978e-02" rms="3.7691438198089600e-01" purity="8.2077437639236450e-01" nType="-99"/>
        <Node pos="r" depth="1" NCoef="0" IVar="3" Cut="1.5919243097305298e+00" cType="1" res="-2.8604861348867416e-02" rms="4.7063609957695007e-01" purity="3.8691580295562744e-01" nType="0">
          <Node pos="l" depth="2" NCoef="0" IVar="-1" Cut="0.0000000000000000e+00" cType="1" res="-1.1437204666435719e-03" rms="4.7601842880249023e-01" purity="4.0580064058303833e-01" nType="-99"/>
          <Node pos="r" depth="2" NCoef="0" IVar="-1" Cut="0.0000000000000000e+00" cType="1" res="-7.4817710556089878e-03" rms="4.1573444008827209e-01" purity="2.4127611517906189e-01" nType="-99"/>
        </Node>
      </Node>
    </BinaryTree>
    <BinaryTree type="DecisionTree" boostWeight="1.0000000000000000e+00" itree="60">
      <Node pos="s" depth="0" NCoef="0" IVar="2" Cut="5.3938436508178711e-01" cType="0" res="-2.2727714851498604e-02" rms="4.6955263614654541e-01" purity="4.0233126282691956e-01" nType="0">
        <Node pos="l" depth="1" NCoef="0" IVar="-1" Cut="0.0000000000000000e+00" cType="1" res="1.3012821786105633e-02" rms="4.3837749958038330e-01" purity="7.2570794820785522e-01" nType="-99"/>
        <Node pos="r" depth="1" NCoef="0" IVar="1" Cut="1.9841672182083130e+00" cType="1" res="-3.3480446785688400e-02" rms="4.7068780660629272e-01" purity="3.7382903695106506e-01" nType="0">
          <Node pos="l" depth="2" NCoef="0" IVar="-1" Cut="0.0000000000000000e+00" cType="1" res="-1.6484113875776529e-03" rms="4.7303906083106995e-01" purity="3.8416957855224609e-01" nType="-99"/>
          <Node pos="r" depth="2" NCoef="0" IVar="-1" Cut="0.0000000000000000e+00" cType="1" res="-6.1583584174513817e-03" rms="4.1117531061172485e-01" purity="2.1985621750354767e-01" nType="-99"/>
        </Node>
      </Node>
    </BinaryTree>
    <BinaryTree type="DecisionTree" boostWeight="1.0000000000000000e+00" itree="61">
      <Node pos="s" depth="0" NCoef="0" IVar="3" Cut="1.4333688020706177e+00" cType="1" res="-1.2191509827971458e-02" rms="4.7098907828330994e-01" purity="4.1251462697982788e-01" nType="0">
        <Node pos="l" depth="1" NCoef="0" IVar="-1" Cut="0.0000000000000000e+00" cType="1" res="2.7802953263744712e-04" rms="4.7579815983772278e-01" purity="4.3596583604812622e-01" nType="-99"/>
        <Node pos="r" depth="1" NCoef="0" IVar="1" Cut="5.4787981510162354e-01" cType="0" res="-1.1940979212522507e-01" rms="4.2146235704421997e-01" purity="2.5276270508766174e-01" nType="0">
          <Node pos="l" depth="2" NCoef="0" IVar="-1" Cut="0.0000000000000000e+00" cType="1" res="-4.1087670251727104e-03" rms="4.4703891873359680e-01" purity="2.9663673043251038e-01" nType="-99"/>
          <Node pos="r" depth="2" NCoef="0" IVar="-1" Cut="0.0000000000000000e+00" cType="1" res="-1.1702835559844971e-02" rms="3.2847750186920166e-01" purity="1.4343540370464325e-01" nType="-99"/>
        </Node>
      </Node>
    </BinaryTree>
    <BinaryTree type="DecisionTree" boostWeight="1.0000000000000000e+00" itree="62">
      <Node pos="s" depth="0" NCoef="0" IVar="3" Cut="-1.8763118982315063e+00" cType="0" res="-2.5354299694299698e-02" rms="4.6888801455497742e-01" purity="3.9899533987045288e-01" nType="0">
        <Node pos="l" depth="1" NCoef="0" IVar="-1" Cut="0.0000000000000000e+00" cType="1" res="-1.1485985014587641e-03" rms="4.7154635190963745e-01" purity="4.0961471199989319e-01" nType="-99"/>
        <Node pos="r" depth="1" NCoef="0" IVar="1" Cut="-1.8988494873046875e+00" cType="1" res="-1.6261996328830719e-01" rms="3.9785262942314148e-01" purity="2.2231023013591766e-01" nType="0">
          <Node pos="l" depth="2" NCoef="0" IVar="-1" Cut="0.0000000000000000e+00" cType="1" res="3.3699772320687771e-03" rms="4.6920925378799438e-01" purity="4.6639403700828552e-01" nType="-99"/>
          <Node pos="r" depth="2" NCoef="0" IVar="-1" Cut="0.0000000000000000e+00" cType="1" res="-1.1972841806709766e-02" rms="3.5561466217041016e-01" purity="1.5515647828578949e-01" nType="-99"/>
        </Node>
      </Node>
    </BinaryTree>
    <BinaryTree type="DecisionTree" boostWeight="1.0000000000000000e+00" itree="63">
      <Node pos="s" depth="0" NCoef="0" IVar="3" Cut="1.4260808229446411e+00" cType="1" res="-1.3102725148200989e-02" rms="4.7152686119079590e-01" purity="4.1179519891738892e-01" nType="0">
        <Node pos="l" depth="1" NCoef="0" IVar="-1" Cut="0.0000000000000000e+00" cType="1" res="1.4445529086515307e-04" rms="4.7663292288780212e-01" purity="4.3497791886329651e-01" nType="-99"/>
        <Node pos="r" depth="1" NCoef="0" IVar="1" Cut="5.4322081804275513e-01" cType="0" res="-1.1627815663814545e-01" rms="4.2076715826988220e-01" purity="2.5334590673446655e-01" nType="0">
          <Node pos="l" depth="2" NCoef="0" IVar="-1" Cut="0.0000000000000000e+00" cType="1" res="-3.6411364562809467e-03" rms="4.4565296173095703e-01" purity="3.0480080842971802e-01" nType="-99"/>
          <Node pos="r" depth="2" NCoef="0" IVar="-1" Cut="0.0000000000000000e+00" cType="1" res="-1.1494559235870838e-02" rms="3.3645009994506836e-01" purity="1.3960449397563934e-01" nType="-99"/>
        </Node>
      </Node>
    </BinaryTree>
    <BinaryTree type="DecisionTree" boostWeight="1.0000000000000000e+00" itree="64">
      <Node pos="s" depth="0" NCoef="0" IVar="3" Cut="-1.6062984466552734e+00" cType="0" res="-1.6552986577153206e-02" rms="4.7018867731094360e-01" purity="4.0698850154876709e-01" nType="0">
        <Node pos="l" depth="1" NCoef="0" IVar="-1" Cut="0.0000000000000000e+00" cType="1" res="-3.1792264780960977e-04" rms="4.7364759445190430e-01" purity="4.2262339591979980e-01" nType="-99"/>
        <Node pos="r" depth="1" NCoef="0" IVar="1" Cut="-7.9354935884475708e-01" cType="1" res="-1.2291689962148666e-01" rms="4.2402303218841553e-01" purity="2.6963180303573608e-01" nType="0">
          <Node pos="l" depth="2" NCoef="0" IVar="-1" Cut="0.0000000000000000e+00" cType="1" res="-4.7089024446904659e-03" rms="4.5308721065521240e-01" purity="3.3891341090202332e-01" nType="-99"/>
          <Node pos="r" depth="2" NCoef="0" IVar="-1" Cut="0.0000000000000000e+00" cType="1" res="-1.0989262722432613e-02" rms="3.5203722119331360e-01" purity="1.5869565308094025e-01" nType="-99"/>
        </Node>
      </Node>
    </BinaryTree>
    <BinaryTree type="DecisionTree" boostWeight="1.0000000000000000e+00" itree="65">
      <Node pos="s" depth="0" NCoef="0" IVar="2" Cut="8.0118380486965179e-02" cType="0" res="-3.0646114610135555e-03" rms="4.7140109539031982e-01" purity="4.1982510685920715e-01" nType="0">
        <Node pos="l" depth="1" NCoef="0" IVar="-1" Cut="0.0000000000000000e+00" cType="1" res="1.2634501326829195e-03" rms="4.8384705185890198e-01" purity="4.7884994745254517e-01" nType="-99"/>
        <Node pos="r" depth="1" NCoef="0" IVar="2" Cut="3.2771021127700806e-02" cType="0" res="-6.4364537596702576e-02" rms="4.2802432179450989e-01" purity="2.5132283568382263e-01" nType="0">
          <Node pos="l" depth="2" NCoef="0" IVar="-1" Cut="0.0000000000000000e+00" cType="1" res="-3.5884038079530001e-03" rms="4.5021492242813110e-01" purity="2.8981041908264160e-01" nType="-99"/>
          <Node pos="r" depth="2" NCoef="0" IVar="-1" Cut="0.0000000000000000e+00" cType="1" res="-1.2215656228363514e-02" rms="3.5719129443168640e-01" purity="1.5204033255577087e-01" nType="-99"/>
        </Node>
      </Node>
    </BinaryTree>
    <BinaryTree type="DecisionTree" boostWeight="1.0000000000000000e+00" itree="66">
      <Node pos="s" depth="0" NCoef="0" IVar="2" Cut="9.0684235095977783e-02" cType="0" res="-1.6784116625785828e-02" rms="4.6946457028388977e-01" purity="4.0687870979309082e-01" nType="0">
        <Node pos="l" depth="1" NCoef="0" IVar="-1" Cut="0.0000000000000000e+00" cType="1" res="3.5540235694497824e-04" rms="4.8473456501960754e-01" purity="4.7362720966339111e-01" nType="-99"/>
        <Node pos="r" depth="1" NCoef="0" IVar="2" Cut="3.6101736128330231e-02" cType="0" res="-6.8058274686336517e-02" rms="4.2786788940429688e-01" purity="2.5315991044044495e-01" nType="0">
          <Node pos="l" depth="2" NCoef="0" IVar="-1" Cut="0.0000000000000000e+00" cType="1" res="-3.6731590516865253e-03" rms="4.5082560181617737e-01" purity="2.9230588674545288e-01" nType="-99"/>
          <Node pos="r" depth="2" NCoef="0" IVar="-1" Cut="0.0000000000000000e+00" cType="1" res="-1.2618667446076870e-02" rms="3.5355392098426819e-01" purity="1.4886052906513214e-01" nType="-99"/>
        </Node>
      </Node>
    </BinaryTree>
    <BinaryTree type="DecisionTree" boostWeight="1.0000000000000000e+00" itree="67">
      <Node pos="s" depth="0" NCoef="0" IVar="1" Cut="1.9868271350860596e+00" cType="1" res="-9.7252596169710159e-03" rms="4.7081568837165833e-01" purity="4.1505041718482971e-01" nType="0">
        <Node pos="l" depth="1" NCoef="0" IVar="-1" Cut="0.0000000000000000e+00" cType="1" res="-2.3296210201806389e-05" rms="4.7213986515998840e-01" purity="4.2571333050727844e-01" nType="-99"/>
        <Node pos="r" depth="1" NCoef="0" IVar="3" Cut="1.8356276750564575e+00" cType="0" res="-1.5654452145099640e-01" rms="4.2337891459465027e-01" purity="2.4869526922702789e-01" nType="0">
          <Node pos="l" depth="2" NCoef="0" IVar="-1" Cut="0.0000000000000000e+00" cType="1" res="-7.8431759029626846e-03" rms="4.4372922182083130e-01" purity="2.9353985190391541e-01" nType="-99"/>
          <Node pos="r" depth="2" NCoef="0" IVar="-1" Cut="0.0000000000000000e+00" cType="1" res="-6.4591080881655216e-03" rms="4.1410714387893677e-01" purity="2.3666304349899292e-01" nType="-99"/>
        </Node>
      </Node>
    </BinaryTree>
    <BinaryTree type="DecisionTree" boostWeight="1.0000000000000000e+00" itree="68">
      <Node pos="s" depth="0" NCoef="0" IVar="3" Cut="-1.8734360933303833e+00" cType="0" res="-4.0996330790221691e-03" rms="4.7021350264549255e-01" purity="4.1854196786880493e-01" nType="0">
        <Node pos="l" depth="1" NCoef="0" IVar="-1" Cut="0.0000000000000000e+00" cType="1" res="4.5154741383157670e-04" rms="4.7329318523406982e-01" purity="4.3167436122894287e-01" nType="-99"/>
        <Node pos="r" depth="1" NCoef="0" IVar="1" Cut="-1.7856316566467285e+00" cType="1" res="-1.6399861872196198e-01" rms="3.8463047146797180e-01" purity="2.1074736118316650e-01" nType="0">
          <Node pos="l" depth="2" NCoef="0" IVar="-1" Cut="0.0000000000000000e+00" cType="1" res="3.0597166623920202e-03" rms="4.6030187606811523e-01" purity="4.4806349277496338e-01" nType="-99"/>
          <Node pos="r" depth="2" NCoef="0" IVar="-1" Cut="0.0000000000000000e+00" cType="1" res="-1.1518876999616623e-02" rms="3.3539861440658569e-01" purity="1.3761885464191437e-01" nType="-99"/>
        </Node>
      </Node>
    </BinaryTree>
    <BinaryTree type="DecisionTree" boostWeight="1.0000000000000000e+00" itree="69">
      <Node pos="s" depth="0" NCoef="0" IVar="1" Cut="1.9867250919342041e+00" cType="1" res="-1.7505234107375145e-02" rms="4.6980449557304382e-01" purity="4.0627360343933105e-01" nType="0">
        <Node pos="l" depth="1" NCoef="0" IVar="-1" Cut="0.0000000000000000e+00" cType="1" res="-5.8910076040774584e-04" rms="4.7196194529533386e-01" purity="4.1833811998367310e-01" nType="-99"/>
        <Node pos="r" depth="1" NCoef="0" IVar="1" Cut="2.2619941234588623e+00" cType="1" res="-1.6007220745086670e-01" rms="4.1167530417442322e-01" purity="2.3101942241191864e-01" nType="0">
          <Node pos="l" depth="2" NCoef="0" IVar="-1" Cut="0.0000000000000000e+00" cType="1" res="-5.2468082867562771e-03" rms="4.2376622557640076e-01" purity="2.5795811414718628e-01" nType="-99"/>
          <Node pos="r" depth="2" NCoef="0" IVar="-1" Cut="0.0000000000000000e+00" cType="1" res="-7.8605869784951210e-03" rms="3.7853077054023743e-01" purity="1.7644360661506653e-01" nType="-99"/>
        </Node>
      </Node>
    </BinaryTree>
    <BinaryTree type="DecisionTree" boostWeight="1.0000000000000000e+00" itree="70">
      <Node pos="s" depth="0" NCoef="0" IVar="3" Cut="1.6664416790008545e+00" cType="1" res="-2.6298677548766136e-02" rms="4.6711355447769165e-01" purity="3.9430513978004456e-01" nType="0">
        <Node pos="l" depth="1" NCoef="0" IVar="-1" Cut="0.0000000000000000e+00" cType="1" res="-8.6307473247870803e-04" rms="4.7222343087196350e-01" purity="4.1533336043357849e-01" nType="-99"/>
        <Node pos="r" depth="1" NCoef="0" IVar="1" Cut="1.1126092672348022e+00" cType="0" res="-1.4032091200351715e-01" rms="4.0534150600433350e-01" purity="2.2211311757564545e-01" nType="0">
          <Node pos="l" depth="2" NCoef="0" IVar="-1" Cut="0.0000000000000000e+00" cType="1" res="-3.1753480434417725e-03" rms="4.5002296566963196e-01" purity="3.0114176869392395e-01" nType="-99"/>
          <Node pos="r" depth="2" NCoef="0" IVar="-1" Cut="0.0000000000000000e+00" cType="1" res="-9.2667592689394951e-03" rms="3.4203192591667175e-01" purity="1.4506149291992188e-01" nType="-99"/>
        </Node>
      </Node>
    </BinaryTree>
    <BinaryTree type="DecisionTree" boostWeight="1.0000000000000000e+00" itree="71">
      <Node pos="s" depth="0" NCoef="0" IVar="2" Cut="1.9995439052581787e-01" cType="0" res="-1.4122906140983105e-02" rms="4.6802562475204468e-01" purity="4.0711492300033569e-01" nType="0">
        <Node pos="l" depth="1" NCoef="0" IVar="-1" Cut="0.0000000000000000e+00" cType="1" res="2.7304010000079870e-03" rms="4.8380336165428162e-01" purity="5.6040841341018677e-01" nType="-99"/>
        <Node pos="r" depth="1" NCoef="0" IVar="3" Cut="-1.7987333536148071e+00" cType="0" res="-4.2851775884628296e-02" rms="4.5583671331405640e-01" purity="3.1454515457153320e-01" nType="0">
          <Node pos="l" depth="2" NCoef="0" IVar="-1" Cut="0.0000000000000000e+00" cType="1" res="-2.2349786013364792e-03" rms="4.6197107434272766e-01" purity="3.2810285687446594e-01" nType="-99"/>
          <Node pos="r" depth="2" NCoef="0" IVar="-1" Cut="0.0000000000000000e+00" cType="1" res="-8.8492529466748238e-03" rms="3.5408204793930054e-01" purity="1.5208047628402710e-01" nType="-99"/>
        </Node>
      </Node>
    </BinaryTree>
    <BinaryTree type="DecisionTree" boostWeight="1.0000000000000000e+00" itree="72">
      <Node pos="s" depth="0" NCoef="0" IVar="2" Cut="9.9039860069751740e-02" cType="0" res="-7.4870907701551914e-03" rms="4.7076064348220825e-01" purity="4.1533118486404419e-01" nType="0">
        <Node pos="l" depth="1" NCoef="0" IVar="-1" Cut="0.0000000000000000e+00" cType="1" res="1.0938990162685513e-03" rms="4.8498931527137756e-01" purity="4.8784598708152771e-01" nType="-99"/>
        <Node pos="r" depth="1" NCoef="0" IVar="0" Cut="8.2814997434616089e-01" cType="0" res="-5.7354442775249481e-02" rms="4.3543520569801331e-01" purity="2.6425847411155701e-01" nType="0">
          <Node pos="l" depth="2" NCoef="0" IVar="-1" Cut="0.0000000000000000e+00" cType="1" res="4.3134596198797226e-03" rms="4.8478874564170837e-01" purity="3.7744837999343872e-01" nType="-99"/>
          <Node pos="r" depth="2" NCoef="0" IVar="-1" Cut="0.0000000000000000e+00" cType="1" res="-5.7838996872305870e-03" rms="4.2822161316871643e-01" purity="2.5209492444992065e-01" nType="-99"/>
        </Node>
      </Node>
    </BinaryTree>
    <BinaryTree type="DecisionTree" boostWeight="1.0000000000000000e+00" itree="73">
      <Node pos="s" depth="0" NCoef="0" IVar="3" Cut="-1.8773194551467896e+00" cType="0" res="-1.8225055187940598e-02" rms="4.6742549538612366e-01" purity="4.0240442752838135e-01" nType="0">
        <Node pos="l" depth="1" NCoef="0" IVar="-1" Cut="0.0000000000000000e+00" cType="1" res="-6.3958938699215651e-04" rms="4.7073510289192200e-01" purity="4.1520535945892334e-01" nType="-99"/>
        <Node pos="r" depth="1" NCoef="0" IVar="1" Cut="-1.9077217578887939e+00" cType="1" res="-1.6585759818553925e-01" rms="3.8482078909873962e-01" purity="2.0793630182743073e-01" nType="0">
          <Node pos="l" depth="2" NCoef="0" IVar="-1" Cut="0.0000000000000000e+00" cType="1" res="6.6627957858145237e-03" rms="4.6244925260543823e-01" purity="5.0349402427673340e-01" nType="-99"/>
          <Node pos="r" depth="2" NCoef="0" IVar="-1" Cut="0.0000000000000000e+00" cType="1" res="-1.2095650658011436e-02" rms="3.3800455927848816e-01" purity="1.3454101979732513e-01" nType="-99"/>
        </Node>
      </Node>
    </BinaryTree>
    <BinaryTree type="DecisionTree" boostWeight="1.0000000000000000e+00" itree="74">
      <Node pos="s" depth="0" NCoef="0" IVar="3" Cut="-1.8727947473526001e+00" cType="0" res="-1.6063500195741653e-02" rms="4.6878883242607117e-01" purity="4.0433689951896667e-01" nType="0">
        <Node pos="l" depth="1" NCoef="0" IVar="-1" Cut="0.0000000000000000e+00" cType="1" res="-5.2081240573897958e-04" rms="4.7211873531341553e-01" purity="4.1556134819984436e-01" nType="-99"/>
        <Node pos="r" depth="1" NCoef="0" IVar="1" Cut="-1.8988494873046875e+00" cType="1" res="-1.5114232897758484e-01" rms="3.8810649514198303e-01" purity="2.2614154219627380e-01" nType="0">
          <Node pos="l" depth="2" NCoef="0" IVar="-1" Cut="0.0000000000000000e+00" cType="1" res="3.3348889555782080e-03" rms="4.5499560236930847e-01" purity="4.8273554444313049e-01" nType="-99"/>
          <Node pos="r" depth="2" NCoef="0" IVar="-1" Cut="0.0000000000000000e+00" cType="1" res="-1.1492865160107613e-02" rms="3.4664526581764221e-01" purity="1.5139874815940857e-01" nType="-99"/>
        </Node>
      </Node>
    </BinaryTree>
    <BinaryTree type="DecisionTree" boostWeight="1.0000000000000000e+00" itree="75">
      <Node pos="s" depth="0" NCoef="0" IVar="3" Cut="1.4337224960327148e+00" cType="1" res="-1.3877271674573421e-02" rms="4.6978119015693665e-01" purity="4.0596142411231995e-01" nType="0">
        <Node pos="l" depth="1" NCoef="0" IVar="-1" Cut="0.0000000000000000e+00" cType="1" res="2.3782360585755669e-05" rms="4.7537615895271301e-01" purity="4.2843171954154968e-01" nType="-99"/>
        <Node pos="r" depth="1" NCoef="0" IVar="1" Cut="1.1127074956893921e+00" cType="0" res="-1.1537913233041763e-01" rms="4.1373273730278015e-01" purity="2.4544866383075714e-01" nType="0">
          <Node pos="l" depth="2" NCoef="0" IVar="-1" Cut="0.0000000000000000e+00" cType="1" res="-2.9662917368113995e-03" rms="4.5228290557861328e-01" purity="3.1891119480133057e-01" nType="-99"/>
          <Node pos="r" depth="2" NCoef="0" IVar="-1" Cut="0.0000000000000000e+00" cType="1" res="-9.5580974593758583e-03" rms="3.5596132278442383e-01" purity="1.7037901282310486e-01" nType="-99"/>
        </Node>
      </Node>
    </BinaryTree>
    <BinaryTree type="DecisionTree" boostWeight="1.0000000000000000e+00" itree="76">
      <Node pos="s" depth="0" NCoef="0" IVar="3" Cut="1.4334936141967773e+00" cType="1" res="-9.5653124153614044e-03" rms="4.7007635235786438e-01" purity="4.1144222021102905e-01" nType="0">
        <Node pos="l" depth="1" NCoef="0" IVar="-1" Cut="0.0000000000000000e+00" cType="1" res="1.4043871487956494e-04" rms="4.7426861524581909e-01" purity="4.3138062953948975e-01" nType="-99"/>
        <Node pos="r" depth="1" NCoef="0" IVar="1" Cut="5.4564917087554932e-01" cType="0" res="-9.7445778548717499e-02" rms="4.2656615376472473e-01" purity="2.5894087553024292e-01" nType="0">
          <Node pos="l" depth="2" NCoef="0" IVar="-1" Cut="0.0000000000000000e+00" cType="1" res="-2.4903968442231417e-03" rms="4.5336270332336426e-01" purity="3.1739225983619690e-01" nType="-99"/>
          <Node pos="r" depth="2" NCoef="0" IVar="-1" Cut="0.0000000000000000e+00" cType="1" res="-1.2114474549889565e-02" rms="3.2997217774391174e-01" purity="1.2638609111309052e-01" nType="-99"/>
        </Node>
      </Node>
    </BinaryTree>
    <BinaryTree type="DecisionTree" boostWeight="1.0000000000000000e+00" itree="77">
      <Node pos="s" depth="0" NCoef="0" IVar="3" Cut="1.6666775941848755e+00" cType="1" res="-1.3379326090216637e-02" rms="4.6838173270225525e-01" purity="4.0667518973350525e-01" nType="0">
        <Node pos="l" depth="1" NCoef="0" IVar="-1" Cut="0.0000000000000000e+00" cType="1" res="-3.4699303341767518e-06" rms="4.7340875864028931e-01" purity="4.2690515518188477e-01" nType="-99"/>
        <Node pos="r" depth="1" NCoef="0" IVar="1" Cut="5.6663453578948975e-01" cType="0" res="-1.2869063019752502e-01" rms="4.0448218584060669e-01" purity="2.3173461854457855e-01" nType="0">
          <Node pos="l" depth="2" NCoef="0" IVar="-1" Cut="0.0000000000000000e+00" cType="1" res="-4.4748503714799881e-03" rms="4.2608538269996643e-01" purity="2.6828709244728088e-01" nType="-99"/>
          <Node pos="r" depth="2" NCoef="0" IVar="-1" Cut="0.0000000000000000e+00" cType="1" res="-1.1213196441531181e-02" rms="3.2274150848388672e-01" purity="1.3362060487270355e-01" nType="-99"/>
        </Node>
      </Node>
    </BinaryTree>
    <BinaryTree type="DecisionTree" boostWeight="1.0000000000000000e+00" itree="78">
      <Node pos="s" depth="0" NCoef="0" IVar="2" Cut="2.5012853741645813e-01" cType="0" res="-1.4314733445644379e-02" rms="4.6616593003273010e-01" purity="4.0327811241149902e-01" nType="0">
        <Node pos="l" depth="1" NCoef="0" IVar="-1" Cut="0.0000000000000000e+00" cType="1" res="5.8936984278261662e-03" rms="4.8012661933898926e-01" purity="6.0643601417541504e-01" nType="-99"/>
        <Node pos="r" depth="1" NCoef="0" IVar="3" Cut="-1.6021831035614014e+00" cType="0" res="-4.0658373385667801e-02" rms="4.5793560147285461e-01" purity="3.2451829314231873e-01" nType="0">
          <Node pos="l" depth="2" NCoef="0" IVar="-1" Cut="0.0000000000000000e+00" cType="1" res="-1.9067733082920313e-03" rms="4.6584782004356384e-01" purity="3.4316200017929077e-01" nType="-99"/>
          <Node pos="r" depth="2" NCoef="0" IVar="-1" Cut="0.0000000000000000e+00" cType="1" res="-7.6609295792877674e-03" rms="3.7144389748573303e-01" purity="1.7624087631702423e-01" nType="-99"/>
        </Node>
      </Node>
    </BinaryTree>
    <BinaryTree type="DecisionTree" boostWeight="1.0000000000000000e+00" itree="79">
      <Node pos="s" depth="0" NCoef="0" IVar="3" Cut="-1.8728134632110596e+00" cType="0" res="-8.0072488635778427e-03" rms="4.6985885500907898e-01" purity="4.1129711270332336e-01" nType="0">
        <Node pos="l" depth="1" NCoef="0" IVar="-1" Cut="0.0000000000000000e+00" cType="1" res="1.5822300338186324e-04" rms="4.7347179055213928e-01" purity="4.2493286728858948e-01" nType="-99"/>
        <Node pos="r" depth="1" NCoef="0" IVar="1" Cut="-1.8988494873046875e+00" cType="1" res="-1.5444530546665192e-01" rms="3.8483881950378418e-01" purity="2.1224081516265869e-01" nType="0">
          <Node pos="l" depth="2" NCoef="0" IVar="-1" Cut="0.0000000000000000e+00" cType="1" res="5.5697670904919505e-04" rms="4.5670288801193237e-01" purity="4.2827928066253662e-01" nType="-99"/>
          <Node pos="r" depth="2" NCoef="0" IVar="-1" Cut="0.0000000000000000e+00" cType="1" res="-1.0405818000435829e-02" rms="3.5249245166778564e-01" purity="1.5694843232631683e-01" nType="-99"/>
        </Node>
      </Node>
    </BinaryTree>
    <BinaryTree type="DecisionTree" boostWeight="1.0000000000000000e+00" itree="80">
      <Node pos="s" depth="0" NCoef="0" IVar="3" Cut="-1.6068638563156128e+00" cType="0" res="-1.2919318862259388e-02" rms="4.6909543871879578e-01" purity="4.0697926282882690e-01" nType="0">
        <Node pos="l" depth="1" NCoef="0" IVar="-1" Cut="0.0000000000000000e+00" cType="1" res="-3.6267330870032310e-05" rms="4.7304645180702209e-01" purity="4.2491981387138367e-01" nType="-99"/>
        <Node pos="r" depth="1" NCoef="0" IVar="1" Cut="-9.0277093648910522e-01" cType="1" res="-1.1135808378458023e-01" rms="4.2384886741638184e-01" purity="2.6485183835029602e-01" nType="0">
          <Node pos="l" depth="2" NCoef="0" IVar="-1" Cut="0.0000000000000000e+00" cType="1" res="-3.0980645678937435e-03" rms="4.5867890119552612e-01" purity="3.4567761421203613e-01" nType="-99"/>
          <Node pos="r" depth="2" NCoef="0" IVar="-1" Cut="0.0000000000000000e+00" cType="1" res="-9.4415545463562012e-03" rms="3.6141538619995117e-01" purity="1.6951125860214233e-01" nType="-99"/>
        </Node>
      </Node>
    </BinaryTree>
    <BinaryTree type="DecisionTree" boostWeight="1.0000000000000000e+00" itree="81">
      <Node pos="s" depth="0" NCoef="0" IVar="2" Cut="5.6091052293777466e-01" cType="0" res="-1.3935390859842300e-02" rms="4.6820113062858582e-01" purity="4.0567216277122498e-01" nType="0">
        <Node pos="l" depth="1" NCoef="0" IVar="-1" Cut="0.0000000000000000e+00" cType="1" res="1.4898370951414108e-02" rms="4.2607131600379944e-01" purity="7.4966114759445190e-01" nType="-99"/>
        <Node pos="r" depth="1" NCoef="0" IVar="1" Cut="1.9841672182083130e+00" cType="1" res="-2.4083605036139488e-02" rms="4.7003534436225891e-01" purity="3.7752696871757507e-01" nType="0">
          <Node pos="l" depth="2" NCoef="0" IVar="-1" Cut="0.0000000000000000e+00" cType="1" res="-1.0479579214006662e-03" rms="4.7234237194061279e-01" purity="3.8841989636421204e-01" nType="-99"/>
          <Node pos="r" depth="2" NCoef="0" IVar="-1" Cut="0.0000000000000000e+00" cType="1" res="-5.9906565584242344e-03" rms="4.1312354803085327e-01" purity="2.2111922502517700e-01" nType="-99"/>
        </Node>
      </Node>
    </BinaryTree>
    <BinaryTree type="DecisionTree" boostWeight="1.0000000000000000e+00" itree="82">
      <Node pos="s" depth="0" NCoef="0" IVar="2" Cut="9.4954840838909149e-02" cType="0" res="-5.3364019840955734e-03" rms="4.7007957100868225e-01" purity="4.1255632042884827e-01" nType="0">
        <Node pos="l" depth="1" NCoef="0" IVar="-1" Cut="0.0000000000000000e+00" cType="1" res="1.1593108065426350e-03" rms="4.8505833745002747e-01" purity="4.8358592391014099e-01" nType="-99"/>
        <Node pos="r" depth="1" NCoef="0" IVar="1" Cut="-1.1789989471435547e+00" cType="0" res="-5.0549812614917755e-02" rms="4.3322664499282837e-01" purity="2.6222693920135498e-01" nType="0">
          <Node pos="l" depth="2" NCoef="0" IVar="-1" Cut="0.0000000000000000e+00" cType="1" res="-3.1568284612149000e-03" rms="4.3839639425277710e-01" purity="2.7497807145118713e-01" nType="-99"/>
          <Node pos="r" depth="2" NCoef="0" IVar="-1" Cut="0.0000000000000000e+00" cType="1" res="-9.5836594700813293e-03" rms="4.0424579381942749e-01" purity="2.0798465609550476e-01" nType="-99"/>
        </Node>
      </Node>
    </BinaryTree>
    <BinaryTree type="DecisionTree" boostWeight="1.0000000000000000e+00" itree="83">
      <Node pos="s" depth="0" NCoef="0" IVar="3" Cut="1.7735226154327393e+00" cType="1" res="-9.5791295170783997e-03" rms="4.6875268220901489e-01" purity="4.0688163042068481e-01" nType="0">
        <Node pos="l" depth="1" NCoef="0" IVar="-1" Cut="0.0000000000000000e+00" cType="1" res="4.8856891226023436e-05" rms="4.7274297475814819e-01" purity="4.2354732751846313e-01" nType="-99"/>
        <Node pos="r" depth="1" NCoef="0" IVar="1" Cut="1.0905226469039917e+00" cType="0" res="-1.1505582928657532e-01" rms="4.1095125675201416e-01" purity="2.3546643555164337e-01" nType="0">
          <Node pos="l" depth="2" NCoef="0" IVar="-1" Cut="0.0000000000000000e+00" cType="1" res="-1.9665758591145277e-03" rms="4.5293918251991272e-01" purity="3.2628840208053589e-01" nType="-99"/>
          <Node pos="r" depth="2" NCoef="0" IVar="-1" Cut="0.0000000000000000e+00" cType="1" res="-8.5344454273581505e-03" rms="3.5045811533927917e-01" purity="1.5334944427013397e-01" nType="-99"/>
        </Node>
      </Node>
    </BinaryTree>
    <BinaryTree type="DecisionTree" boostWeight="1.0000000000000000e+00" itree="84">
      <Node pos="s" depth="0" NCoef="0" IVar="3" Cut="1.6282161474227905e+00" cType="1" res="-1.0503141209483147e-02" rms="4.6588534116744995e-01" purity="4.0699887275695801e-01" nType="0">
        <Node pos="l" depth="1" NCoef="0" IVar="-1" Cut="0.0000000000000000e+00" cType="1" res="1.0499578638700768e-04" rms="4.7079548239707947e-01" purity="4.2703256011009216e-01" nType="-99"/>
        <Node pos="r" depth="1" NCoef="0" IVar="1" Cut="1.1127225160598755e+00" cType="0" res="-1.0690478980541229e-01" rms="4.1168388724327087e-01" purity="2.4530512094497681e-01" nType="0">
          <Node pos="l" depth="2" NCoef="0" IVar="-1" Cut="0.0000000000000000e+00" cType="1" res="-1.5990947140380740e-03" rms="4.5283988118171692e-01" purity="3.3016607165336609e-01" nType="-99"/>
          <Node pos="r" depth="2" NCoef="0" IVar="-1" Cut="0.0000000000000000e+00" cType="1" res="-9.3248449265956879e-03" rms="3.4921365976333618e-01" purity="1.5890182554721832e-01" nType="-99"/>
        </Node>
      </Node>
    </BinaryTree>
    <BinaryTree type="DecisionTree" boostWeight="1.0000000000000000e+00" itree="85">
      <Node pos="s" depth="0" NCoef="0" IVar="3" Cut="1.4267903566360474e+00" cType="1" res="-1.0246687568724155e-02" rms="4.6786960959434509e-01" purity="4.0669026970863342e-01" nType="0">
        <Node pos="l" depth="1" NCoef="0" IVar="-1" Cut="0.0000000000000000e+00" cType="1" res="2.4059314455371350e-04" rms="4.7322222590446472e-01" purity="4.3020933866500854e-01" nType="-99"/>
        <Node pos="r" depth="1" NCoef="0" IVar="0" Cut="-7.9383009672164917e-01" cType="1" res="-1.0150858014822006e-01" rms="4.1863137483596802e-01" purity="2.4752379953861237e-01" nType="0">
          <Node pos="l" depth="2" NCoef="0" IVar="-1" Cut="0.0000000000000000e+00" cType="1" res="1.2370302341878414e-02" rms="4.6607282757759094e-01" purity="4.4587406516075134e-01" nType="-99"/>
          <Node pos="r" depth="2" NCoef="0" IVar="-1" Cut="0.0000000000000000e+00" cType="1" res="-5.9096217155456543e-03" rms="4.0804421901702881e-01" purity="2.2645623981952667e-01" nType="-99"/>
        </Node>
      </Node>
    </BinaryTree>
    <BinaryTree type="DecisionTree" boostWeight="1.0000000000000000e+00" itree="86">
      <Node pos="s" depth="0" NCoef="0" IVar="2" Cut="9.4929963350296021e-02" cType="0" res="-1.1506649665534496e-02" rms="4.6659350395202637e-01" purity="4.0441334247589111e-01" nType="0">
        <Node pos="l" depth="1" NCoef="0" IVar="-1" Cut="0.0000000000000000e+00" cType="1" res="7.9271011054515839e-04" rms="4.8326629400253296e-01" purity="4.7857409715652466e-01" nType="-99"/>
        <Node pos="r" depth="1" NCoef="0" IVar="1" Cut="-1.1910728216171265e+00" cType="0" res="-5.7166900485754013e-02" rms="4.2680796980857849e-01" purity="2.5249424576759338e-01" nType="0">
